tree
version=v4
num_class=1
num_tree_per_iteration=1
label_index=0
max_feature_idx=95
objective=binary sigmoid:1
feature_names=Column_0 Column_1 Column_2 Column_3 Column_4 Column_5 Column_6 Column_7 Column_8 Column_9 Column_10 Column_11 Column_12 Column_13 Column_14 Column_15 Column_16 Column_17 Column_18 Column_19 Column_20 Column_21 Column_22 Column_23 Column_24 Column_25 Column_26 Column_27 Column_28 Column_29 Column_30 Column_31 Column_32 Column_33 Column_34 Column_35 Column_36 Column_37 Column_38 Column_39 Column_40 Column_41 Column_42 Column_43 Column_44 Column_45 Column_46 Column_47 Column_48 Column_49 Column_50 Column_51 Column_52 Column_53 Column_54 Column_55 Column_56 Column_57 Column_58 Column_59 Column_60 Column_61 Column_62 Column_63 Column_64 Column_65 Column_66 Column_67 Column_68 Column_69 Column_70 Column_71 Column_72 Column_73 Column_74 Column_75 Column_76 Column_77 Column_78 Column_79 Column_80 Column_81 Column_82 Column_83 Column_84 Column_85 Column_86 Column_87 Column_88 Column_89 Column_90 Column_91 Column_92 Column_93 Column_94 Column_95
feature_infos=[0:16.583333333333332] [80:100] [0:3.925925925925926] [0:2.833333333333333] [0:2.4074074074074074] [45.823837280273438:83.64772891998291] [0:122.089] [0:88.013999999999996] [91.5:100] [0:92] [1.2787561076142857:19.1578178406] [-7.2978929986599965:2.595154724208335] [0:32360] [1.4399999999999999:7090.2799999999997] [0:503] [0.080555555555555561:1] [0:1] [0:16.583333333333332] [0:16.583333333333332] [0:18.233333333333334] [0.91666666666666663:13.449999999999999] [3.7999999999999976:10.445833333333331] [-9.75:9.9166666666666643] [75:100] [75:100] [71:100] [82:100] [82.833333333333329:99] [-16:20] [0:3.925925925925926] [0:3.925925925925926] [0:3.270833333333333] [0:2.4074074074074074] [0.47434820081878931:1.643928744646395] [-3.5080154781647321:3.550925925925926] [0:2.833333333333333] [0:2.833333333333333] [0:2.1898734177215191] [0.42810457516339878:2.6031746031746037] [0.6088806787082649:1.484991281866282] [-1.6833333333333331:2.1321448783248442] [46.30626392364502:83.64772891998291] [46.30626392364502:83.64772891998291] [44.122844696044922:85.806939125061035] [46.513665676116943:83.013076464335128] [44.996645450592041:82.411613600594663] [-2.9576568603515625:3.5999975204467702] [0:122.089] [0:122.089] [0:120.64] [0:113.00066666666667] [13.455999999999998:110.44942857142858] [-74.899000000000001:68.204000000000008] [0:92] [0:92] [0:92] [0:89.666666666666671] [0:87.285714285714292] [-87:86] [-6.7014294040499998:2.595154724208335] [-6.7014294040499998:2.595154724208335] [-7.5547816245799986:2.595154724208335] [-6.7014294040499998:2.595154724208335] [-2.3015832644595249:2.2011311707638868] [-7.3641613047999996:5.736851672272433] [0:32360] [0:32577] [0:32577] [0:26700.666666666668] [911:22957.285714285714] [-18448:22999] [0:343] [0:484] [0:503] [0:256] [0:154.28571428571428] [-316:409] [0.11597222222222223:1] [0.11597222222222223:1] [0.022222222222222223:1] [0.2300925925925926:1] [0.3213293650793651:1] [-0.76458333333333339:0.88402777777777775] [91.5:100] [91.5:100] [92.400000000000006:100] [91.5:98.733333333333334] [93.200000000000003:97.933333333333337] [-5.1999999999999886:4.2000000000000028] [1.2787561076142857:19.1578178406] [1.2787561076142857:19.1578178406] [0:18.4989757538] [2.3932790570467541:19.100606918349996] [2.6635060736236364:17.581037521350002] [-6.5504217148000006:9.4690313339000003] [-6.4942809513637059:6.5538297380719825]
tree_sizes=3372 3397 3411 3384 3400 3396 3403 3402 3408 3409 3406 3400 3418 3392 3396 3411 3411 3394 3390 3404 3385 3406 3420 3392 3425 3406 3420 3412 3422 3411 3439 3396 3441 3435 3415 3389 3396 3412 3422 3394 3412 3405 3394 3399 3407 3409 3415 3399 3413 3426 3418 3419 3392 3397 3431 3381 3413 3362 3437 3381 3416 3408 3408 3392 3400 3371 3404 3427 3417 3382 3392 3419 3349 3423 3416 3425 3409 3425 3427 3441 3411 3428 3414 3406 3420 3366 3402 3414 3413 3408 3408 3373 3420 3412 3396 3393 3437 3412 3406 3422 3398 3417 3410 3382 3407 3416 3429 3410 3411 3404 3352 3395 3413 3410 3430 3385 3405 3419 3388 3434 3398 3404 3414 3428 3399 3424 3412 3433 3392 3438 3400 3426 3416 3420 3440 3412 3420 3432 3416 3388 3382 3364 3385 3423 3400 3389 3418 3406 3446 3427 3430 3374 3403 3453 3400 3410 3398 3424 3391 3394 3438 3411 3428 3419 3408 3346 3400 3426 3364 3438 3455 3357 3417 3422 3352 3402 3416 3409 3411 3376 3362 3413 3429 3433 3402 3393 3403 3435 3406 3423 3365 3417 3388 3424 3436 3418 3397 3400 3329 3418 3409 3467 3415 3392 3403 3444 3426 3428 3415 3396 3412 3373 3390 3349 3387 3358 3387 3429 3419 3319 3398 3342 3384 3419 3397 3388 3300 3344 3376 3423 3434 3369 3391 3330 3267 3330 3361 3370 3398 3396 3379 3381 3338 3315 3396 3325 3355 3374 3409 3342 3349 3268 3286 3413 3356 3405 3321 3299 3333 3344 3399 3321 3341 3260 3335 3283 3326 3356 3302 3294 3333 3256 3313 3335 3222 3250 3330 3300 3313 3325 3308 3302 3230 3387 3276 3306 3310 3217 3254 3324 3258 3258 3266 3308 3271 3358 3269 3193 3240 3334 3248 3276 3291 3235 3224 3321 3249 3277 3242 3252 3316 3306 3219 3287 3227 3286 3255 3373 3315 3247 3316 3225 3252 3264 3258 3149 3260 3293 3229 3249 3230 3181 3195 3206 3224 3182 3208 3250 3225 3196 3175 3208 3178 3206 3152 3204 3272 3251 3216 3120 3174 3228 3169 3123 3117 3186 3247 3166 3168 3171 3217 3232 3146 3200 3170 3181 3199 3159 3194 3138 3224 3131 3180 3137 3140 3187 3129 3117 3231 3109 3168 3204 3171 3163 3147 3248 3165 3153 3172 3142 3060 3195 3101 3161 3160 3148 3130 3146 3148 3090 3163 3100 3099 3072 3040 3124 3153 3095 3086 3180 3157 3080 3123 3147 3151 3108 3141 3142 3163 3206 3182 3144 3118 3104 3129 3133 3138 3097 3079 3052 3142 3041 3136 3113 3098 3110 3119 3074 3093 3159 3055 3112 3095 3072 3078 3062 3101 3140 3109 3120 3075 3112 3061 3098 3095 2885 3110 3170 3088 3101 3039 3091 3128 3129 3096 3094 3086 3079 3098 2870 3059 3085 3065 3084 3077 3136 3080 3088 3076 3084 3093 3015 2892 3032 3029 3044 3081 3064 3097 3093 3123 3040 3173 3072 3088 3106 3079 3062 3106 3105

Tree=0
num_leaves=31
num_cat=0
split_feature=79 51 21 88 44 57 63 10 39 41 87 41 33 51 65 51 51 7 56 57 87 42 13 33 57 71 38 57 61 57
split_gain=191.365 140.551 74.4799 64.3903 43.7284 39.3129 27.923 25.8406 26.0442 21.8766 40.4683 27.2726 21.8237 21.4011 19.3823 14.8103 14.3928 24.0385 20.1471 14.3814 13.9452 13.5952 22.8886 12.185 15.2081 11.9197 11.7193 11.579 11.5085 9.70863
threshold=0.99826388888888895 45.908714285714289 6.0583333333333345 -3.3999999999999981 53.542874733606986 57.414285714285718 -0.011528224382306209 1.0000000180025095e-35 0.97052052542944911 58.931590557098396 94.468571428571423 54.107421398162849 1.133379466576693 48.592857142857149 4739.0000000000009 30.171589285714287 33.744428571428578 66.236500000000021 83.416666666666671 54.952380952380956 96.042857142857159 60.726408958435066 3225.8100000000004 0.8498480921940107 44.690476190476197 23.500000000000004 0.8300863051974986 81.071428571428584 -0.36867577246318101 70.380952380952394
decision_type=10 8 10 10 8 8 8 10 10 10 10 10 10 10 10 10 10 8 8 8 10 10 8 8 10 2 8 8 10 10
left_child=1 3 4 7 -3 -5 13 8 23 10 11 -4 16 -6 -2 -14 17 28 -19 -8 -11 22 -21 24 -1 -23 -25 -12 -10 -7
right_child=14 2 9 5 6 29 19 -9 12 20 27 -13 15 -15 -16 -17 -18 18 -20 21 -22 25 -24 26 -26 -27 -28 -29 -30 -31
leaf_value=-0.19230427588255833 -0.14649230718646211 -0.33213223383267843 -0.28145597842522357 -0.28873272128762617 -0.14514370723837822 -0.18941350076937635 -0.17219705047458927 -0.13289303629837512 -0.15474986561316817 -0.31940032045390776 -0.24568251862761414 -0.15661079396619976 -0.16861870969033441 -0.25065569838141133 -0.22309073943264868 -0.25843140319334484 -0.30342613758528109 -0.30153597734739823 -0.19578574049499672 -0.1909675722829855 -0.25557998255099268 -0.30379495497436626 -0.2833559079971063 -0.23869633529858725 -0.29863808904706379 -0.24770081077457395 -0.18296130274097094 -0.33248586848533346 -0.23940110139319259 -0.13931129828490041
leaf_weight=5.8117220699787122 62.780708074569702 11.57661461830139 7.5517112612724331 5.9376143217086783 14.505586355924608 14.563362985849379 6.2623798847198477 6.2885314226150504 6.7130376994609859 74.244201898574829 5.1567173898220089 10.035498738288878 10.774431586265566 7.0171252787113181 9.7788487970828992 7.7560581266880027 19.578983694314957 22.424635380506519 5.4972954988479605 18.310330301523212 9.9308925867080671 15.501777261495588 10.397362947463987 13.431548953056334 7.6617909669876099 24.662111908197403 33.460582345724106 16.502833604812622 10.13523945212364 35.121508806943893
leaf_count=20 204 47 29 23 47 50 21 20 22 297 19 33 36 26 35 29 77 88 19 63 37 61 40 49 30 91 114 67 37 113
internal_value=-0.231839 -0.244325 -0.271022 -0.214206 -0.240788 -0.168309 -0.229716 -0.231351 -0.235783 -0.297557 -0.266461 -0.210408 -0.25393 -0.179646 -0.156703 -0.206354 -0.267745 -0.251932 -0.280439 -0.244156 -0.311953 -0.250761 -0.224622 -0.21081 -0.252359 -0.26957 -0.198774 -0.312151 -0.205049 -0.153757
internal_weight=509.371 436.811 231.655 205.156 108.233 55.6225 96.6567 149.534 143.245 123.422 39.2468 17.5872 82.8797 21.5227 72.5596 18.5305 64.3492 44.7702 27.9219 75.134 84.1751 68.8716 28.7077 60.3656 13.4735 40.1639 46.8921 21.6596 16.8483 49.6849
internal_count=1844 1605 878 727 396 186 349 541 521 482 148 62 308 73 239 65 243 166 107 276 334 255 103 213 50 152 163 86 59 163
is_linear=0
shrinkage=1


Tree=1
num_leaves=31
num_cat=0
split_feature=75 50 21 84 45 41 45 81 27 50 56 45 69 45 56 81 75 45 13 81 45 81 21 27 9 6 9 26 13 9
split_gain=177.367 89.6101 70.2959 49.5118 49.501 29.9494 40.6143 27.8215 31.8245 25.9887 25.6922 25.5816 25.5716 20.7208 20.4402 20.3528 23.3766 22.5135 20.1667 18.6803 17.9236 15.4855 12.7104 15.8097 23.6548 14.2492 11.3174 11.1622 10.536 10.3301
threshold=1.642857142857143 44.117250000000027 6.0583333333333345 97.65000000000002 55.040403366088874 59.547836780548103 54.104070731571753 0.55163690476190486 94.535714285714292 24.388166666666681 78.166666666666671 74.74738268852235 4909.7142857142871 61.662997802098594 74.166666666666671 0.47237103174603179 32.357142857142868 69.616701296397636 2475.2250000000008 0.56314484126984143 60.822031293596545 0.40719246031746043 6.8890476190476191 92.183333333333351 76.500000000000014 36.483500000000006 81.500000000000014 95.166666666666671 1814.0250000000003 75.500000000000014
decision_type=8 8 10 8 8 10 10 10 8 10 10 10 10 8 8 8 8 10 10 10 10 10 10 8 10 10 8 10 8 8
left_child=-1 3 4 7 -3 6 -4 -2 -9 14 20 13 -11 -6 -5 -15 27 -18 -19 -7 -8 -14 23 -23 -25 29 -21 28 -17 -24
right_child=1 2 5 9 11 19 10 8 -10 12 -12 -13 21 15 -16 16 17 18 -20 26 -22 22 25 24 -26 -27 -28 -29 -30 -31
leaf_value=0.087292188048749067 0.084531896704600124 -0.077030652451905934 -0.074876582760909347 -0.0039654340763480341 0.098119944822297356 -0.072951580149627424 0.082734462986799706 0.069307665420178119 -0.050186312327761988 0.058982374599548859 -0.053531009273353851 -0.086734180321806478 -0.078771087852453472 0.074444415212257267 0.083995154484379275 0.074760847322389454 -0.051555386529965289 -0.026858507084992489 0.092877194765872376 0.043228135232455944 -0.014046036410093114 0.052857288451437681 0.0033136656587390342 -0.054890708406415023 0.023587237409589745 -0.039331486592029362 -0.045050971514388048 0.074420570924322901 0.00046207032171206554 0.080108690182202666
leaf_weight=67.225369527935982 43.22297465801239 14.76598574221134 16.340102225542068 10.548918381333353 9.0261794477701169 70.566914409399033 14.608760818839079 12.264089569449427 10.01271693408489 13.563039496541021 7.8480747640132895 5.1698842048645011 8.4017942994832975 13.830271720886229 17.068203046917915 6.0557867586612728 22.303737416863441 7.3578447550535184 6.5028791278600693 5.7295392155647251 6.9315635710954657 6.1490538269281378 8.2053790539503151 32.368387416005135 13.463315322995184 6.7170412242412558 9.4337372332811356 12.310203716158865 21.842615514993668 9.6738083809614164
leaf_count=218 141 60 66 39 29 285 48 41 39 46 31 21 34 46 56 20 87 28 21 20 26 21 30 127 48 26 37 41 80 32
internal_value=0.0116874 0.000167322 -0.0194993 0.0259074 0.00827665 -0.0447029 -0.0118549 0.0611523 0.0153912 0.00753516 0.023151 0.0204523 -0.00444474 0.0261688 0.0503233 0.018813 0.0085892 -0.0204631 0.0292213 -0.0621316 0.051439 -0.0146842 -0.00749403 -0.0215432 -0.0317274 0.0219614 -0.0113019 0.0348294 0.0169778 0.0453573
internal_weight=509.508 442.283 250.624 191.659 119.165 131.459 45.7285 65.4998 22.2768 126.159 29.3884 104.399 98.5418 99.2295 27.6171 90.2033 76.3731 36.1645 13.8607 85.7302 21.5403 84.9788 76.577 51.9808 45.8317 24.5962 15.1633 40.2086 27.8984 17.8792
internal_count=1844 1626 946 680 433 513 171 221 80 459 105 373 364 352 95 323 277 136 49 342 74 318 284 196 175 88 57 141 100 62
is_linear=0
shrinkage=0.05


Tree=2
num_leaves=31
num_cat=0
split_feature=75 50 57 86 45 43 75 45 50 50 86 57 9 85 20 63 45 63 45 54 63 43 50 63 57 43 80 22 80 57
split_gain=159.165 81.4568 61.1455 44.5697 37.956 74.7536 27.6423 28.1106 26.6269 24.7972 40.4063 31.6691 24.5083 24.2302 23.9467 23.0776 20.6557 19.3794 14.239 14.1798 16.5632 13.6454 13.4653 13.2076 18.1872 35.0721 12.6187 12.3199 11.9937 11.0871
threshold=1.642857142857143 44.117250000000027 69.416666666666671 94.433333333333351 54.104070731571753 61.157273292541511 95.071428571428584 71.196593597957076 23.746500000000008 31.843583333333353 95.683333333333351 13.800000000000002 76.500000000000014 95.250000000000014 5.3236111111111084 0.14883291208014407 64.718239375523169 0.099180724606144036 73.167981965201264 77.500000000000014 0.40311323123000947 69.023003101348891 28.990916666666681 -0.10803065586228865 74.928571428571445 63.270162582397468 0.48576388888888816 3.9083333333333337 0.51898148148148138 41.342857142857149
decision_type=8 10 10 10 8 10 8 10 8 8 10 10 10 8 10 10 10 8 8 8 10 10 8 10 10 10 2 8 2 10
left_child=21 2 4 8 -2 6 7 29 -4 11 14 -7 -10 28 17 16 -13 27 -18 -16 -21 -1 -14 -15 25 26 -25 -11 -3 -6
right_child=1 13 3 -5 5 9 -8 -9 12 10 -12 15 22 23 19 -17 18 -19 -20 20 -22 -23 -24 24 -26 -27 -28 -29 -30 -31
leaf_value=0.08985581971397523 -0.083127016861612016 -0.029907055501031472 0.086792113502600715 0.088711987413602922 0.078303037759644034 0.061651848780331892 -0.062189852391411241 -0.031007442704498546 -0.046864030666035228 0.087011477698793138 0.072531133903944209 -0.072809129354562283 -0.030039475653050526 -0.080691068434741317 0.0054546894644412229 -0.0754760400791116 0.078584456899873339 -0.025810795775550389 -0.019986879316811187 -0.06297210139633444 0.025925885970006869 0.01246600608291942 0.059925263591254663 -0.0049667927766428111 -0.065918947569860387 -0.083806294850860927 0.096425718732636279 -0.00092300775901473214 0.069129025368534575 0.0022494730680559403
leaf_weight=61.060756981372833 13.248997643589972 5.7008807361125928 10.192398622632025 37.149100333452225 48.700386822223663 22.290711402893066 5.0584753751754752 7.6294400840997687 17.592808932065964 7.7121461629867536 9.9604882299900037 4.9710380434989991 5.707905828952792 29.222938880324364 10.683748573064802 10.681513741612433 10.024251773953434 30.51601941883564 5.5795544236898431 65.091084778308868 5.5606769770383826 6.4874479770660392 14.213734388351439 5.3651008605957049 24.164674952626228 7.7616930156946173 6.7728009223937988 7.8962636440992355 6.2857844978570938 5.4711778461933127
leaf_count=195 55 22 33 119 160 75 20 29 69 25 33 20 22 120 39 43 33 116 21 262 20 23 48 20 98 32 22 29 21 20
internal_value=0.0111114 0.000150259 0.0106795 0.0476938 -0.000902102 0.00333441 0.0488098 0.0580617 0.0155298 -0.012578 -0.023835 0.0162088 -0.00387799 -0.0437011 -0.0314558 -0.016133 0.0146494 -0.00254969 0.0431164 -0.0477634 -0.0558779 0.0825265 0.0338777 -0.0544903 -0.0368576 -0.00116445 0.0515261 0.0424846 0.0217559 0.0707323
internal_weight=508.754 441.206 355.932 84.8559 271.076 257.827 66.8595 61.801 47.7068 190.967 137.42 53.5471 37.5144 85.2739 127.46 31.2564 20.5748 46.1244 15.6038 81.3355 70.6518 67.5482 19.9216 73.2872 44.0643 19.8996 12.1379 15.6084 11.9867 54.1716
internal_count=1844 1626 1291 291 1000 945 229 209 172 716 524 192 139 335 491 117 74 170 54 321 282 218 70 292 172 74 42 54 43 180
is_linear=0
shrinkage=0.05


Tree=3
num_leaves=31
num_cat=0
split_feature=75 51 87 81 51 45 43 51 21 81 69 45 56 45 56 81 62 62 81 7 56 41 43 87 51 75 69 65 17 51
split_gain=143.531 92.4422 62.0371 31.5805 33.7762 31.3819 44.6664 47.9491 40.8469 33.0223 30.6047 46.5107 24.4193 21.5799 18.099 20.6718 17.7528 19.2493 21.0592 17.4142 34.1747 15.9644 12.2868 10.5398 10.5334 9.97655 9.83757 10.2424 10.4287 9.4805
threshold=1.642857142857143 45.908714285714289 96.791666666666686 0.56919642857142871 33.228190476190484 54.104070731571753 61.055859088897712 32.836541666666669 6.0361111111111114 0.47534722222222242 12658.285714285716 64.095848219735302 26.166666666666668 68.784537451607846 77.166666666666671 0.51130952380952388 0.2125392663611313 -0.11299851667455721 0.51572420634920657 68.306500000000014 76.416666666666671 54.433265686035163 69.023003101348891 95.007142857142881 37.815714285714293 87.285714285714292 10837.642857142861 8394.0000000000018 5.5250000000000012 21.644261904761908
decision_type=8 10 8 10 8 8 10 8 10 10 10 10 10 10 8 8 8 10 10 10 8 10 10 10 8 10 8 8 10 10
left_child=22 2 3 29 -5 -4 12 10 9 -9 11 -8 13 21 15 -10 17 -3 23 -13 -21 -7 -1 -19 -11 -12 27 28 -26 -2
right_child=1 16 5 4 -6 6 7 8 14 24 25 19 -14 -15 -16 -17 -18 18 -20 20 -22 -23 -24 -25 26 -27 -28 -29 -30 -31
leaf_value=0.08530353633302952 0.01977133304167053 -0.062338048266169122 -0.080421002262139926 -0.059540702619077492 0.052551649722367179 0.03099409337417813 -0.069684252838287566 0.076672895284865233 -0.082917312721864492 -0.074247313085997954 -0.075993336629121916 0.081103388648425589 -0.042588498130931553 -0.024127623385216349 -0.062576021158418121 0.042981652984417244 -0.080191322527152553 0.0013882251545206301 0.066801665801066237 -0.046782903074148112 0.078855757105820934 0.096386483229143352 0.011844366358113239 -0.080803532759578675 -0.046477161514988985 0 -0.054819370158773473 0.033130483023584081 0.02536447287860626 0.081278194023677003
leaf_weight=61.106392607092857 7.6359610706567755 23.591298297047615 11.610413074493406 11.355566874146463 16.132030040025711 15.765546068549154 8.165077939629553 12.533061295747755 4.8442314714193317 6.1551661342382422 7.8172138184309032 31.906905978918076 6.9683640599250785 6.8755202889442435 58.751362338662148 9.4735539853572845 29.445115923881531 9.3483444601297396 8.0223681926727277 9.6744461506605166 11.973140090703962 24.31220468878746 6.4916737377643576 6.4494646191596976 12.732844009995462 9.2255769371986371 8.0956810861825925 17.921579584479332 8.1523270457982999 44.590568602085114
leaf_count=195 27 96 49 45 55 55 33 41 20 25 32 104 27 26 240 33 123 35 27 38 39 77 23 27 50 34 32 63 29 144
internal_value=0.0105791 0.000129164 0.0106995 0.0496311 0.00601529 -0.000264386 0.00317534 -0.00691186 -0.0246203 0.00395562 0.0241919 0.0405969 0.0438789 0.0568811 -0.0503103 0 -0.0496338 -0.0304218 0.00110719 0.0576024 0.0225202 0.0709284 0.0783508 -0.0321493 -0.0132392 -0.0348166 -0.00498563 0.00539612 -0.018209 0.0724359
internal_weight=507.123 439.525 362.668 79.7141 27.4876 282.954 271.344 217.422 138.66 65.5907 78.7624 61.7196 53.9216 46.9533 73.0691 14.3178 76.8566 47.4115 23.8202 53.5545 21.6476 40.0778 67.5981 15.7978 53.0576 17.0428 46.9024 38.8068 20.8852 52.2265
internal_count=1844 1626 1318 271 100 1047 998 813 533 240 280 214 185 158 293 53 308 185 89 181 77 132 218 62 199 66 174 142 79 171
is_linear=0
shrinkage=0.05


Tree=4
num_leaves=31
num_cat=0
split_feature=79 50 21 5 57 81 21 45 43 57 43 63 75 85 57 69 49 80 65 81 69 81 5 33 49 38 44 43 41 44
split_gain=130.046 83.3145 43.2491 35.7741 35.0671 41.2631 29.1199 27.9334 35.2433 24.6077 22.7217 22.0938 21.4748 20.9713 18.9815 17.9843 17.2704 13.9179 13.6877 13.5857 16.4178 15.0698 13.1538 12.9509 12.6903 12.1664 11.338 15.7453 11.1067 11.0744
threshold=0.99826388888888895 44.117250000000027 6.0583333333333345 54.388038158416755 65.928571428571445 0.40719246031746043 6.8812500000000005 61.313006060464048 53.513370037078865 75.071428571428584 66.575035095214858 0.045603936434569094 69.500000000000014 97.15000000000002 56.828571428571429 9309.4285714285743 27.728500000000004 0.59016203703703685 4739.0000000000009 0.6172619047619049 5131.3333333333348 0.48189484126984133 73.944199562072768 0.94635561949588765 71.652000000000001 1.015535625069818 70.491751352945968 62.275725364685066 76.290489196777358 58.989651044209801
decision_type=10 8 10 8 10 10 10 10 10 10 8 8 10 8 8 10 8 2 10 10 8 10 8 10 8 10 10 10 10 10
left_child=1 4 3 -3 6 -6 14 8 -4 12 25 24 29 -7 -1 -16 -15 -9 -2 21 -21 -13 -18 -19 -5 -8 27 -22 -12 -10
right_child=18 2 7 11 5 13 10 17 9 -11 28 19 -14 16 15 -17 22 23 -20 20 26 -23 -24 -25 -26 -27 -28 -29 -30 -31
leaf_value=-0.061113924945394693 0.08011479360303804 -0.074388738872600432 -0.079631414643270629 -0.0023190281663123965 -0.045601689663006956 0.08593534161130327 0.094945653722215959 -0.06914383761387341 0.093239543097326294 -0.052773014269960811 -0.05129698344496697 0.026539204404405423 -0.046001823099813655 0.06704286235540198 0.013316583046001994 -0.074302013807446513 0.02754443348924783 0.035879113875637268 0.015864901905160319 -0.039257783240532224 0.062881453695198861 -0.054614653429537134 -0.055735489204137623 -0.054853311549822793 0.074922209115813501 0.026649325278380872 0.083745381118839973 -0.017787857892092338 0.036446919880023333 0.011407094792692212
leaf_weight=18.115603536367416 63.490052074193954 13.142871871590613 12.906933903694151 7.2858323156833675 10.83138759434223 36.678090438246727 14.168488919734957 63.189494743943214 13.176445871591573 9.0317258685827237 8.4347261488437635 8.129616320133211 5.1872898787260047 22.010000631213188 37.223555818200111 6.8458546996116629 18.179013058543209 6.6993589103221884 9.8271116316318494 10.103316158056257 10.258565887808802 18.326284557580948 6.287555679678916 9.1365707218646985 18.367106229066849 12.676030203700064 8.2419001460075361 14.32081890106201 6.0984349250793448 6.2631632983684531
leaf_count=73 204 56 55 27 43 117 45 266 42 37 33 29 21 73 134 28 64 24 35 39 34 73 25 37 60 45 27 54 21 23
internal_value=0.0100884 -0.000370996 -0.0205796 0.00255174 0.0235157 0.0456161 0.00338614 -0.0405296 -0.00965207 0.0171909 0.0358822 0.013312 0.0431615 0.0575983 -0.0181793 -0.000318518 0.0349916 -0.0586257 0.0716045 -0.00129613 0.0159881 -0.0294826 0.00579941 -0.0161711 0.0528665 0.0631002 0.0332138 0.0157964 -0.0141386 0.0673235
internal_weight=504.633 431.316 233.767 108.176 197.549 93.986 103.563 125.591 46.5656 33.6586 41.3777 95.0334 24.6269 83.1547 62.185 44.0694 46.4766 79.0254 73.3172 69.3805 42.9246 26.4559 24.4666 15.8359 25.6529 26.8445 32.8213 24.5794 14.5332 19.4396
internal_count=1844 1605 904 399 701 322 379 505 178 123 144 343 86 279 235 162 162 327 239 256 154 102 89 61 87 90 115 88 54 65
is_linear=0
shrinkage=0.05


Tree=5
num_leaves=31
num_cat=0
split_feature=79 50 21 88 5 45 43 45 57 57 21 80 69 50 69 62 39 8 49 12 40 33 27 9 43 43 69 50 69 5
split_gain=117.931 75.6871 39.7342 36.8343 32.8736 25.7554 32.473 23.5849 22.4611 22.3688 21.386 19.5324 26.6035 25.3104 18.5869 16.3489 14.9415 14.8813 13.3059 13.2722 13.0733 18.949 13.0521 16.8333 12.1588 11.8108 19.6321 11.8077 11.4425 14.0542
threshold=0.99826388888888895 44.117250000000027 6.0583333333333345 -2.1999999999999953 54.388038158416755 61.313006060464048 53.513370037078865 59.451084477560869 70.380952380952394 75.071428571428584 6.7979166666666666 0.57233796296296313 13141.642857142859 32.484333333333353 10159.000000000002 0.082714387898544586 1.0048298352341483 96.450000000000017 70.247500000000016 4614.5000000000009 1.1472743160583454 0.95324802753596372 94.77500000000002 77.500000000000014 61.954232692718513 66.366496562957778 7360.8928571428578 61.04833333333336 6186.1428571428578 63.385803699493415
decision_type=10 8 10 10 8 10 10 10 10 10 8 2 10 10 10 8 8 10 10 10 8 10 10 8 8 8 8 10 10 10
left_child=1 3 4 7 -3 6 -4 -1 10 14 17 12 13 22 18 27 -15 -5 -8 -2 -7 -22 -9 -24 -17 -26 -27 -6 29 -13
right_child=19 2 5 8 15 20 9 11 -10 -11 -12 28 -14 16 -16 24 -18 -19 -20 -21 21 -23 23 -25 25 26 -28 -29 -30 -31
leaf_value=0.090846045997224373 0.077767206583593429 -0.072141387075532054 -0.077296184877031729 0.02608250218999756 0.056624344985549815 -0.070055286199119576 0.087877458072977144 0.074968400100060215 0.083103205400932148 -0.050790520649339338 0.087925692667433789 -0.05136224267633456 -0.039872290307038163 0.02985612057999833 -0.044251579738127468 0.05243368340296415 -0.040819469221371592 -0.076798284838780317 -0.0038440984445033952 0.019322472946793692 0.029907657504298881 -0.061407440992866824 -0.030056669300106299 0.061190091713722063 -0.054048360048642601 -0.036907775116440639 0.030954712497317179 -0.024950278874080141 -0.049015015067778493 0.03703244500076238
leaf_weight=8.20471143722534 61.08369018137455 12.884343802928923 12.641741439700125 7.9065559059381503 25.522692903876308 54.439606562256813 14.331999197602277 26.702110320329666 33.156272366642952 8.9217606931924802 6.9266081750392905 7.0929504334926632 16.913087397813797 14.236754342913629 4.9479122906923285 8.8241163641214353 15.476110458374022 6.1197727173566818 5.2936960458755484 11.925310894846914 9.3199196606874484 14.072630435228346 8.8317953348159808 11.437049344182013 12.031991392374037 18.586104094982147 24.683545470237732 5.2111771553754798 22.156621634960175 11.86357745528221
leaf_count=26 197 56 55 28 86 234 46 87 106 37 22 28 67 50 20 30 61 25 20 42 34 59 34 38 48 72 87 20 88 41
internal_value=0.00963238 -0.000364875 -0.0197442 0.0223996 0.0024235 -0.0390374 -0.00927767 0.00903977 0.0575121 0.0163986 0.0165764 0.00395646 0.0166034 0.0291603 0.041102 0.0126693 -0.00680138 -0.018677 0.0629896 0.0683287 -0.0565795 -0.0248409 0.0519812 0.0212331 -0.00163929 -0.0104367 0.00167179 0.0425945 -0.0246842 0.00359953
internal_weight=501.746 428.737 231.713 197.024 107.744 123.969 46.1371 142.915 54.1092 33.4954 20.9529 134.71 93.5969 76.6838 24.5736 94.8596 29.7129 14.0263 19.6257 73.009 77.8322 23.3926 46.971 20.2688 64.1258 55.3016 43.2696 30.7339 41.1131 18.9565
internal_count=1844 1605 904 701 399 505 178 520 181 123 75 494 337 270 86 343 111 53 66 239 327 93 159 72 237 207 159 106 157 69
is_linear=0
shrinkage=0.05


Tree=6
num_leaves=31
num_cat=0
split_feature=79 51 21 84 81 41 51 69 57 63 41 63 48 56 69 63 13 95 13 63 12 57 20 41 69 68 69 39 39 51
split_gain=107.214 81.9029 47.2557 39.6626 27.616 25.0492 22.7832 25.2688 38.0563 31.0004 21.5895 18.3302 15.5053 14.9145 15.2543 14.5515 22.5798 14.9847 19.1506 13.472 12.2182 12.0358 13.4527 11.7631 26.1106 17.1395 11.3919 10.4019 9.32361 15.1039
threshold=0.99826388888888895 45.908714285714289 6.1797619047619046 97.65000000000002 0.61413690476190486 54.292022228240974 32.836541666666669 12658.285714285716 57.414285714285718 0.082710491487594004 60.738920688629157 0.082710491487594004 57.594000000000008 73.833333333333357 10159.000000000002 0.44234300669357562 2574.3650000000002 0.71763733455113166 1278.5650000000003 -0.17423828795765206 4614.5000000000009 67.428571428571445 6.6138888888888889 58.931590557098396 9656.6428571428587 4311.8333333333348 11126.357142857145 1.0165869480900542 1.041722895929343 28.236226190476195
decision_type=10 8 10 8 10 8 10 10 8 8 10 8 10 8 8 8 10 8 10 8 10 8 10 10 10 10 10 8 10 10
left_child=1 3 5 4 21 -3 7 8 9 -5 -8 12 -7 14 -4 26 17 -17 -19 -10 -2 22 -1 24 25 -15 -13 -12 29 -9
right_child=20 2 13 6 -6 11 10 28 19 -11 27 15 -14 23 -16 16 -18 18 -20 -21 -22 -23 -24 -25 -26 -27 -28 -29 -30 -31
leaf_value=-0.025592623707410861 0.074476310038353769 -0.065488493818267768 0.03565741295388191 0.036895860136939886 -0.036194692451194894 0.061840867772481517 0.03893997883748173 0.044510440880707561 -0.018870205555432645 -0.081542415347482619 -0.015798324265069354 -0.060002125236067121 -0.029522993966032748 -0.064744687204092766 -0.055660349447267325 -0.05408894603760396 0.064017419931656702 -0.052837225600789399 0.045848604729062693 0.063867720557685137 0.018355750960158946 0.077424428250241525 0.074152331632208343 -0.065615958774794064 -0.076399620843767613 0.046244823087868904 0.021346871351585098 -0.073474679844713023 -0.079213775290764524 -0.070503485739580263
leaf_weight=6.8282427787780744 60.609687313437462 12.263851806521414 10.577037960290911 10.924189567565916 7.4079860448837271 23.036156058311466 10.308656126260756 6.5577156543731707 5.3217626959085464 10.92597019672394 16.546681433916095 15.710275992751127 5.6638868600130072 4.7396476417779985 7.8879085332155219 12.485527619719504 14.27863200008869 7.1217633336782482 15.175985082983969 49.133459135890007 11.930811420083044 46.325657039880753 6.4342522770166397 60.749180153012276 14.539509028196333 12.13866353034973 5.746133789420127 15.32401520013809 6.5879884064197531 4.8868490755558014
leaf_count=26 197 54 38 38 29 77 36 23 20 46 63 64 22 20 33 50 48 28 52 163 42 150 21 264 64 43 21 64 28 20
internal_value=0.00921035 -0.000359493 -0.0213613 0.0225366 0.0540262 0.00157372 0.00701812 0.0206988 0.0333063 -0.022202 -0.0234382 0.00997085 0.0435969 -0.0444984 -0.00317233 -0.00368607 0.0112597 -0.0103756 0.0140105 0.0556705 0.0653529 0.065368 0.0226169 -0.0527111 -0.0274708 0.0145853 -0.0379865 -0.0438296 -0.0322642 -0.0043529
internal_weight=498.168 425.628 222.114 203.513 66.9961 111.482 136.517 94.3379 76.3054 21.8502 42.1794 99.2184 28.7 110.632 18.4649 70.5183 49.0619 34.7833 22.2977 54.4552 72.5405 59.5882 13.2625 92.167 31.4178 16.8783 21.4564 31.8707 18.0326 11.4446
internal_count=1844 1605 878 727 226 416 501 338 267 84 163 362 99 462 71 263 178 130 80 183 239 197 47 391 127 63 85 127 71 43
is_linear=0
shrinkage=0.05


Tree=7
num_leaves=31
num_cat=0
split_feature=75 51 57 44 43 84 51 45 51 57 87 63 21 53 63 56 75 62 62 67 75 38 39 71 45 13 5 67 39 47
split_gain=100.086 68.6399 43.2221 33.3948 63.1512 32.7253 26.2333 20.8981 19.9749 33.2065 32.5507 22.7915 19.2779 19.0143 17.6216 16.2025 15.5653 15.4007 17.0824 14.9304 11.9545 10.6937 10.6914 10.4282 11.9358 14.1199 9.59214 9.33976 8.30715 10.4837
threshold=1.3571428571428574 45.908714285714289 69.416666666666671 54.293935139973968 62.25837707519532 93.350000000000009 26.335964285714287 71.196593597957076 30.647875000000003 13.800000000000002 96.391666666666694 0.0093800650199037886 5.9962301587301585 77.500000000000014 -0.011528224382306209 77.166666666666671 37.500000000000007 0.2125392663611313 -0.11299851667455721 12263.000000000002 90.642857142857153 1.0399708871272046 1.0145871928198726 23.500000000000004 67.979957893916549 2607.6850000000004 62.874275684356697 6729.0000000000009 0.92961896898065421 25.190000000000001
decision_type=8 10 10 8 10 10 8 10 8 10 10 10 10 10 8 8 10 8 10 8 8 10 10 2 10 10 8 8 10 10
left_child=-1 2 3 -2 6 13 -5 20 9 -6 12 27 14 22 -10 16 -14 18 -3 21 -8 -20 -4 -16 -25 -26 -17 -11 -15 -30
right_child=1 17 5 4 8 -7 7 -9 10 11 -12 -13 15 28 23 26 -18 -19 19 -21 -22 -23 -24 24 25 -27 -28 -29 29 -31
leaf_value=0.068734094954465821 -0.076317940602617068 -0.056582671969433035 0.010229775728310565 -0.067556275562508233 0.069457286035467455 0.074302168000887528 0.065306185882592557 -0.029677676187183845 0.045917176627745443 0.070904187421589701 0.093934500368621818 -0.068188199117989109 0.063499194601390654 0.081229128505838577 -0.044624913617712147 0.0026188519093434883 -0.037141300616154248 -0.073283927692754408 0.058154583012383812 -0.064860333482741186 -0.010661697673895736 -0.021711183784328705 -0.058720501078281723 -0.047021549122255847 -0.0085550246677750606 0.085938564370005299 -0.063684840432627551 -0.011805281589633759 0.06596667070776191 -0.010354460868896081
leaf_weight=60.97284796833992 13.687019079923628 22.50202202796936 12.066679686307909 5.0099285989999762 17.7667515873909 38.547846034169197 58.543202474713326 7.3339434564113608 12.838488683104513 6.0907811522483835 5.7123704552650443 12.289211019873617 5.9753123372793224 8.6551012992858904 22.309192582964897 5.9398503154516211 10.350784406065939 27.577293902635574 10.79947347939015 5.7150573432445517 5.5296470969915381 6.6276788115501395 10.230382055044172 8.058522507548334 10.379598125815393 6.1916839033365241 50.780399709939957 7.3707178086042413 7.5489594936370876 10.659743949770926
leaf_count=201 61 96 44 21 58 126 194 28 44 20 18 51 20 28 89 23 41 123 37 25 21 27 42 32 39 20 221 28 25 41
internal_value=0.00881153 0.000349781 0.00934278 -0.000480162 0.00354437 0.0398458 0.041676 0.0494935 -0.012448 0.0170101 -0.0217431 -0.0191113 -0.0268226 0.0126305 -0.00565305 -0.0440469 0 -0.0437329 -0.0256483 0.00432927 0.0586657 0.0275452 -0.0213038 -0.0199322 0.00232184 0.0267553 -0.056661 0.0254956 0.0409562 0.0212011
internal_weight=494.06 433.088 359.866 272.157 258.47 87.7087 76.4167 71.4068 182.054 43.5175 138.536 25.7507 132.824 49.1609 59.7775 73.0463 16.3261 73.2215 45.6442 23.1422 64.0728 17.4272 22.2971 46.939 24.6298 16.5713 56.7203 13.4615 26.8638 18.2087
internal_count=1844 1643 1335 1029 968 306 264 243 704 157 547 99 529 180 224 305 61 308 185 89 215 64 86 180 91 59 244 48 94 66
is_linear=0
shrinkage=0.05


Tree=8
num_leaves=31
num_cat=0
split_feature=75 51 57 43 41 81 51 51 57 87 63 21 50 63 9 57 81 63 87 63 41 68 95 17 51 8 56 68 95 43
split_gain=91.7677 58.7238 37.1961 27.7921 43.7727 24.7502 22.5302 19.2056 24.7954 22.9339 20.6695 20.5931 20.473 22.2389 18.5641 16.8803 14.0269 22.3971 13.5564 12.3742 11.0336 10.8972 10.769 10.0515 9.95934 10.8554 13.9526 9.45788 9.42381 9.36713
threshold=6.0000000000000009 45.908714285714289 69.416666666666671 63.000204563140876 54.107421398162849 0.40719246031746043 30.945533333333337 30.647875000000003 13.800000000000002 96.130952380952408 0.088422823817905324 5.9845238095238082 29.921500000000012 -0.011528224382306209 66.500000000000014 29.500000000000004 0.53100198412698429 -0.058477220277447554 95.007142857142881 0.032171244778275321 66.337264537811294 6066.3333333333348 0.33573600224085715 6.2083333333333348 26.787797619047623 93.850000000000009 74.166666666666671 9127.5000000000018 1.7957378796168764 69.631797790527358
decision_type=8 10 10 10 8 10 8 8 10 10 10 10 10 8 10 10 10 10 8 10 8 8 10 10 8 10 10 10 8 8
left_child=19 2 3 4 -2 -4 15 8 -5 11 22 12 13 -9 -7 -6 18 -18 -3 -1 27 29 -10 -15 -16 26 -26 -8 -22 -13
right_child=1 16 5 7 6 14 20 9 10 -11 -12 21 -14 23 24 -17 17 -19 -20 -21 28 -23 -24 -25 25 -27 -28 -29 -30 -31
leaf_value=0.063230970107075429 -0.074607957885841084 0.016285566598664855 -0.045616807273368712 0.06376833473490702 0.034027300771888466 -0.01490960556564659 0.080243822007276686 0.07427803742600135 -0.025647735293366537 0.069854251446754223 -0.07266629917862466 0.0076254543919634672 -0.079364059867760517 -0.022743607737763696 0.084004206932525916 -0.078958602228703018 -0.060436228431240448 0.06468993427539102 -0.061428918106336931 0.0019664394835995601 -0.018601240043113934 -0.061956940217922286 0.06434499134725355 0.045806116211596748 -0.050571847219530945 0.075357001697477929 0.04015313167761924 0.025905762295197712 0.041783591078931204 -0.062465253572952364
leaf_weight=73.561099708080292 10.561410903930662 6.1392261236906043 8.0147460103034955 16.098487839102745 6.0276363939046842 10.445339918136595 25.498588800430298 9.5678905546665174 5.9370522648096102 6.0979823172092429 9.5721239000558835 13.16480788588524 8.0054771900176984 30.740510106086731 21.904874637722969 7.0067174136638641 7.0100965797901154 7.0898198336362821 51.854149878025055 9.4784321635961515 9.6237482428550702 43.726535275578499 7.1889840662479401 6.339270368218421 5.2245796322822597 14.896067053079603 20.184146106243134 12.299318566918371 18.755606994032863 7.2698032706975928
leaf_count=247 48 23 33 53 21 40 83 31 23 20 41 51 34 119 71 30 30 24 231 35 37 193 24 22 21 49 70 44 65 31
internal_value=0.00844672 -0.00133583 0.00748439 -0.00191139 0.0204095 0.0370357 0.0332195 -0.014187 0.0164355 -0.0237436 -0.0170481 -0.0286442 -0.00596565 0.00666654 0.0462722 -0.0264672 -0.0422404 0.00214097 -0.0531021 0.0563089 0.0450731 -0.0478448 0.0233761 -0.010798 0.0566326 0.0414618 0.021177 0.0628093 0.0211375 -0.0172492
internal_weight=489.285 406.245 334.152 253.482 89.773 80.6698 79.2116 163.709 38.7966 124.912 22.6982 118.814 54.6531 46.6477 72.655 13.0344 72.0933 14.0999 57.9934 83.0395 66.1773 64.1611 13.126 37.0798 62.2097 40.3048 25.4087 37.7979 28.3794 20.4346
internal_count=1844 1562 1254 970 328 284 280 642 141 501 88 481 206 172 251 51 308 54 254 282 229 275 47 141 211 140 91 127 102 82
is_linear=0
shrinkage=0.05


Tree=9
num_leaves=31
num_cat=0
split_feature=75 51 57 44 45 86 45 51 57 51 13 62 62 95 67 20 28 51 67 29 41 57 57 38 62 51 65 13 39 39
split_gain=84.4408 57.5829 36.0958 29.2043 47.6576 28.7125 18.281 18.5873 15.9855 15.1692 15.0401 14.4408 15.3942 13.3084 13.3082 12.4906 12.3697 10.4936 10.0347 9.70939 9.51604 10.3016 9.34103 8.98259 9.85728 8.59048 8.47078 7.74897 8.21752 6.57616
threshold=1.3571428571428574 45.908714285714289 69.416666666666671 54.293935139973968 61.978201412019281 94.433333333333351 69.061386619295405 26.626071428571432 26.333333333333339 30.413366666666665 1217.2450000000001 0.2125392663611313 -0.11299851667455721 2.0918445587158243 12263.000000000002 5.0805555555555513 -3.4999999999999996 32.836541666666669 5636.0000000000009 0.97014851485148534 76.290489196777358 46.433333333333344 75.071428571428584 0.85354129330943851 0.35318818248796313 22.722857142857148 8037.5000000000009 1799.7700000000002 1.041722895929343 1.047710132330409
decision_type=8 10 10 8 10 10 10 10 8 8 10 8 10 8 8 8 10 10 10 10 8 8 10 10 8 10 10 10 8 10
left_child=-1 2 3 -2 9 6 -4 29 -6 -5 -11 12 -3 15 22 16 -10 23 25 -9 21 -20 -14 24 -15 27 -27 -17 -29 -8
right_child=1 11 5 4 8 -7 7 19 13 10 -12 -13 14 17 -16 18 -18 -19 20 -21 -22 -23 -24 -25 -26 26 -28 28 -30 -31
leaf_value=0.063826798187410522 -0.073029744678464112 -0.05314376665028251 -0.042073829599308082 -0.0272846134962914 0.051626242701257513 0.068092767780531388 0.088855083141176516 -0.04344457646142335 -0.036767968489686151 -0.028889187099402011 0.059600497288892246 -0.07015070398646879 0.066279140885050783 -0.06826662851959503 -0.061510207059911462 -0.076714319162056968 0.050157047875986016 -0.046029755750089017 0.021633988350112279 0.030549939633299297 0.010696591030214119 -0.049003259730484944 -0.0066569356699175564 0.039459111521345361 0.014316893421055214 0.041650528505553445 -0.032563137214962186 -0.045433396425858419 0.027130548714222377 0.02310096084776601
leaf_weight=59.519958332180977 13.109604537487028 21.800016030669212 12.24752666056156 6.8603386282920829 10.218018159270285 39.352981477975845 10.937884867191316 9.0346366465091723 6.2631567418575314 5.1894314736127845 48.461639598011971 26.380583390593529 8.0306777656078392 4.733466625213623 5.4896229803562155 5.6993468552827862 11.213095605373381 7.0837058275938025 5.4645329862833014 8.4662712067365629 9.0806993693113309 62.805010423064232 9.2673570513725263 23.917365044355392 14.074043601751329 12.75528107583523 5.3278704434633246 7.5572055727243397 7.7937942445278177 6.2993251830339423
leaf_count=201 61 96 50 27 35 132 35 36 25 20 163 123 27 20 25 25 39 29 20 30 34 268 37 86 51 44 21 33 28 23
internal_value=0.00810289 0.000272407 0.00852866 -0.000526194 0.00321616 0.0366203 0.0100656 0.0286597 -0.00885044 0.0419324 0.0509104 -0.0407884 -0.0231861 -0.0122665 0.00536174 -0.0204792 0.0186883 0.00971784 -0.0264094 -0.00739458 -0.036849 -0.0432527 0.0271029 0.0191633 -0.00645438 -0.00560598 0.019451 -0.0273576 -0.00833149 0.0653855
internal_weight=484.434 424.914 353.946 267.608 254.498 86.3386 46.9856 34.7381 193.987 60.5114 53.6511 70.9683 44.5877 183.769 22.7877 133.96 17.4763 49.8086 116.484 17.5009 77.3502 68.2695 17.298 42.7249 18.8075 39.1335 18.0832 21.0503 15.351 17.2372
internal_count=1844 1643 1335 1029 968 306 174 124 758 210 183 308 185 723 89 537 64 186 473 66 322 288 64 157 71 151 65 86 61 58
is_linear=0
shrinkage=0.05


Tree=10
num_leaves=31
num_cat=0
split_feature=75 51 57 83 43 45 51 75 45 51 57 86 21 95 81 9 43 62 62 81 57 75 50 80 43 2 13 50 45 51
split_gain=77.4848 52.865 32.9973 26.9151 25.0306 45.7615 22.3248 17.9018 18.5908 17.8585 25.3219 18.8587 16.7691 15.7637 15.4687 15.3928 13.9381 13.6977 14.1858 14.4414 11.6711 19.3254 10.0018 9.62678 9.37153 9.22736 8.32336 8.29448 7.60891 7.13003
threshold=1.3571428571428574 45.908714285714289 69.416666666666671 93.850000000000009 62.603767395019538 54.104070731571753 26.335964285714287 95.071428571428584 71.196593597957076 30.647875000000003 13.800000000000002 95.350000000000009 5.9962301587301585 -0.50078392028808583 0.47534722222222242 74.500000000000014 71.507548809051528 0.2125392663611313 -0.11299851667455721 0.51572420634920657 65.657142857142858 39.214285714285722 31.843583333333353 0.39826388888888875 61.055859088897712 1.2864741641337389 2696.5150000000008 25.823333333333341 68.659243367967164 27.122500000000002
decision_type=8 10 10 10 10 8 8 8 10 8 10 10 10 10 10 10 10 8 10 8 8 10 10 2 8 8 10 8 8 10
left_child=-1 2 4 15 5 -2 -7 8 24 10 -6 12 14 -12 -11 27 -15 18 -3 -20 21 -14 -16 -17 -8 -26 -22 -4 -27 -25
right_child=1 17 3 -5 9 6 7 -9 -10 11 13 -13 20 16 22 23 -18 -19 19 -21 26 -23 -24 29 25 28 -28 -29 -30 -31
leaf_value=0.061559556724419366 -0.070526880035077094 -0.051385259333122907 0.024204383586647935 0.06810355622486966 0.06251018637161608 -0.063980707056703043 0.078817765841562221 -0.047240663027876675 -0.027798859132094768 0.059941532071740626 -0.066636443446935673 0.036618558076318135 0.05422690042996451 0.057743872194102999 -0.0078425433769781817 -0.03189289076196395 -0.038028616233442683 -0.068531912589730584 -0.023977896257612902 0.05917904406296174 -0.064533888525437802 -0.056803382819585926 -0.07584464959731646 0.06974509921349141 -0.010510839562473786 0.076274657099327667 -0.0064298032307362283 -0.049718723157041282 0.021884192135870322 0.017937807477053751
leaf_weight=58.652218505740166 11.832369372248648 21.431615591049194 5.3549032807350185 35.900209337472916 17.500593826174736 5.2539061754941931 27.785738974809647 5.1490943729877463 7.059839352965354 7.4662005454301825 9.3752381503582018 12.823207467794417 7.1010759621858588 8.4927475005388242 41.01757350564003 4.8946683704853049 6.6638747453689566 25.67383374273777 14.714977771043779 7.9452243000268927 41.972675681114197 8.4770516753196699 6.1827984750270835 13.160745501518251 7.2107254415750495 14.972067385911943 7.4771837741136542 11.989194855093954 11.959465280175207 14.158825784921644
leaf_count=201 57 96 19 122 58 23 91 21 27 25 40 45 24 29 156 20 27 123 62 27 193 36 27 44 27 49 32 50 42 51
internal_value=0.00776956 0.000250972 0.00816192 0.0351697 -0.000513478 0.020679 0.0344068 0.0415234 0.0482797 -0.0116232 0.0166802 -0.0206441 -0.026846 -0.0159321 -0.00630774 0.0111225 0.0153348 -0.0394595 -0.0223012 0.0050912 -0.0439987 -0.00584978 -0.0169974 0.0316068 0.0570642 0.0390362 -0.0558797 -0.0266008 0.0524768 0.0432408
internal_weight=479.65 420.998 351.232 85.4585 265.773 91.2232 79.3908 74.1369 68.9878 174.55 42.0325 132.518 119.695 24.5319 54.6666 49.5583 15.1566 69.7657 44.0918 22.6602 65.028 15.5781 47.2004 32.2142 61.928 34.1423 49.4499 17.3441 26.9315 27.3196
internal_count=1844 1643 1335 306 1029 337 280 257 236 692 154 538 493 96 208 184 56 308 185 89 285 60 183 115 209 118 225 69 91 95
is_linear=0
shrinkage=0.05


Tree=11
num_leaves=31
num_cat=0
split_feature=75 51 84 57 51 44 44 95 49 33 87 57 43 69 13 61 67 57 51 57 43 86 57 63 43 27 95 5 6 4
split_gain=71.1868 48.581 31.0674 17.1221 18.5973 16.8394 33.8087 19.2597 14.3896 20.7789 13.1467 14.7129 18.9761 13.8313 12.5953 13.0809 11.688 12.1407 13.8339 11.2605 10.8304 10.8102 11.4072 10.217 10.5268 18.563 9.13557 9.09908 6.82194 10.7323
threshold=1.3571428571428574 46.674357142857147 96.850000000000009 70.380952380952394 33.906314285714295 54.293935139973968 59.116977055867515 2.1545042991638188 30.518500000000003 0.91213944416501558 95.007142857142881 75.071428571428584 63.270162582397468 10159.000000000002 1217.2450000000001 0.44034952640215158 14948.500000000002 65.928571428571445 27.003142857142862 46.690476190476197 65.54705667495729 96.466666666666683 76.309523809523824 0.12644811030810177 68.412505626678481 93.585714285714303 0.55931302479335454 68.772143363952651 26.898000000000003 0.96550698780850441
decision_type=8 10 8 10 10 8 8 8 8 10 8 8 10 8 10 10 10 8 8 8 8 10 10 8 8 10 10 10 10 8
left_child=-1 2 3 4 19 -4 -7 8 16 23 -3 12 13 -12 20 -16 17 18 -8 -2 -9 22 -11 27 -25 -26 -21 -10 -19 -30
right_child=1 10 5 -5 -6 6 7 14 9 21 11 -13 -14 -15 15 -17 -18 28 -20 26 -22 -23 -24 24 25 -27 -28 -29 29 -31
leaf_value=0.059450506555375628 0.035232852561624887 0.023380430397921884 -0.061612029874366862 0.066908535141050413 0.067128122823012795 0.067154549095911481 -0.067776054166642799 0.016797094924541661 0.05111599940703259 -0.046830721854990598 0.061491801892202047 -0.06608974090058016 -0.065731564920512173 -0.044997345337759731 0.033644952916198817 -0.043944270872825555 -0.049044641488024031 0.064379775311993168 0.035600297520537227 -0.077350860316763193 -0.081864671002440423 0.034599780278008911 0.018041514081145665 -0.057427267774283135 -0.023258014799795893 0.072551461222370828 0.0075992272136465649 -0.023736391569468874 -0.03808938475636927 0.056432924763158004
leaf_weight=57.723514318466187 7.0478929430246415 7.4638676047325125 10.276202052831648 30.229359000921249 10.470560491085051 19.168343886733055 6.4328169077634785 5.6165931075811359 15.73385424911976 66.245344623923302 8.6421327590942383 36.672675982117653 10.287529662251471 4.5441855192184457 62.723576381802559 5.8071645796298972 6.3210492879152289 15.314239814877512 6.2624798268079767 7.6191786825656873 5.2352221608161935 5.0152485668659201 7.3764963150024405 9.2512907534837705 16.951244056224827 7.075745925307273 5.1672570556402206 5.2899349778890601 5.38000716269016 6.4809831529855737
leaf_count=201 25 28 49 105 35 65 28 21 55 289 30 176 49 21 225 24 27 52 22 34 22 18 27 39 67 24 20 22 22 22
internal_value=0.00746704 0.000231109 0.00777078 0.0403016 0.0134638 0.000903207 0.00325606 -0.00148671 -0.0105889 -0.0189545 -0.0385117 -0.0463013 -0.0150249 0.0243554 0.0189773 0.0269429 0.0133683 0.0234862 -0.0165109 -0.0148095 -0.0306565 -0.0353725 -0.0402474 0.00475054 -0.0123729 0.00493359 -0.0428402 0.032022 0.0423468 0.0131807
internal_weight=473.826 416.102 348.492 60.5342 30.3049 287.958 277.682 258.513 179.131 132.939 67.6104 60.1465 23.4738 13.1863 79.3826 68.5307 46.1916 39.8705 12.6953 19.8343 10.8518 78.6371 73.6218 54.3021 33.2783 24.027 12.7864 21.0238 27.1752 11.861
internal_count=1844 1643 1339 219 114 1120 1071 1006 714 541 304 276 100 51 292 249 173 146 50 79 43 334 316 207 130 91 54 77 96 44
is_linear=0
shrinkage=0.05


Tree=12
num_leaves=31
num_cat=0
split_feature=79 48 20 92 81 45 43 39 81 80 85 68 65 37 6 45 19 95 7 62 62 2 43 49 59 39 49 53 43 67
split_gain=66.5675 45.0632 19.8267 17.2727 16.2528 13.7771 22.277 15.201 13.742 12.7343 12.2165 10.5476 10.0205 9.93669 9.286 7.6483 8.25227 10.6664 9.17918 8.84672 7.47976 10.6664 8.19298 8.82111 7.3501 6.54966 6.52483 6.45295 8.43593 6.28925
threshold=0.99826388888888895 43.624000000000009 5.9111111111111088 1.0000000180025095e-35 0.40719246031746043 61.509237221309128 53.513370037078865 1.0282625248626789 0.56607142857142867 0.6289351851851851 96.750000000000014 13938.833333333336 4739.0000000000009 0.62891737891737909 22.455000000000002 74.74738268852235 3.9416666666666669 0.24984339305332529 59.875500000000009 0.16804758460481992 -0.25261341349160321 1.205505279034691 64.708398342132583 39.085500000000003 0.046054709861859784 0.99322148394812892 31.455500000000004 79.500000000000014 68.369165420532241 10762.000000000002
decision_type=10 8 10 10 10 8 10 10 10 2 8 10 10 8 10 10 10 10 10 8 8 10 8 8 8 10 10 8 8 10
left_child=1 3 13 4 -1 6 -4 -8 11 10 -6 -7 -2 -3 26 16 17 -15 19 25 -16 22 -22 24 -24 -18 -12 -10 -29 -9
right_child=12 2 5 -5 9 8 7 29 27 -11 14 -13 -14 15 20 -17 18 -19 -20 -21 21 -23 23 -25 -26 -27 -28 28 -30 -31
leaf_value=-0.045622904054269248 0.060921020597551272 0.046382385607932647 -0.061376874821950846 0.076637854521176496 0.053185858773828198 -0.05843986511141297 0.040352611483129089 -0.0010652483575670144 0.027356454450654072 -0.019483088437143442 0.051705350077136669 0.0083394266274485016 0.0052841684503133254 0.0019588481225992142 -0.035572735795871245 -0.057945665777760648 -0.0068892892752356162 0.066524825706680557 -0.069272689085695768 -0.021521867075169659 0.03615096768063316 0.050060628252308337 0.044856191948399196 -0.06164612075909226 -0.026267114659373911 0.045361968466929199 -0.001632500820043591 -0.05779673934965595 0.010132098526244401 -0.069891841540924635
leaf_weight=9.9812555909156782 57.877770856022835 11.288304671645163 13.097445011138914 12.529225796461104 30.716278225183487 54.97247776389122 22.299379974603653 10.099778801202772 8.5236460119485873 17.426341861486435 22.773861244320873 6.4540709406137458 9.6613698005676252 21.155850201845173 9.7165449112653715 5.8421172350645056 11.716562286019331 9.1804778724908811 5.8269010484218589 30.190359845757481 9.2591727226972598 13.255162984132765 6.1486777663230958 7.9101472795009604 8.5390631109476036 11.84554450213909 7.4042801558971396 9.3505479991436022 8.5993132889270765 4.9605177342891684
leaf_count=43 204 41 66 43 110 263 83 41 31 69 79 27 35 79 39 25 48 31 25 123 34 46 22 34 34 43 29 41 32 24
internal_value=0.00717112 -0.000554697 -0.0139131 0.0204687 0.0154668 -0.0264098 -0.00545321 0.0141304 -0.0383628 0.0201146 0.0261323 -0.05134 0.0530558 0.00220171 0.016247 -0.00299728 0.000577759 0.0218167 -0.0101712 -0.00355489 0.00386471 0.0125295 -0.00303791 -0.0194038 0.00327086 0.0192487 0.0384915 -0.00798375 -0.0251009 -0.0243764
internal_weight=468.602 401.063 245.403 155.66 143.131 138.357 50.4571 37.3597 87.9001 133.15 115.723 61.4265 67.5391 107.046 85.0069 95.7578 89.9157 30.3363 59.5794 53.7525 54.8288 45.1122 31.8571 22.5979 14.6877 23.5621 30.1781 26.4735 17.9499 15.0603
internal_count=1844 1605 1023 582 539 608 214 148 394 496 427 290 239 415 317 374 349 110 239 214 209 170 124 90 56 91 108 104 73 65
is_linear=0
shrinkage=0.05


Tree=13
num_leaves=31
num_cat=0
split_feature=79 51 20 84 81 51 43 69 57 63 43 81 63 44 44 43 57 69 50 75 87 41 11 12 24 13 51 71 13 57
split_gain=61.2392 45.44 28.4168 23.1622 19.4753 14.7464 33.067 18.2788 26.6085 21.5309 14.3007 13.1241 12.5761 17.432 12.7188 16.2648 10.6035 16.166 13.4611 12.4901 15.7472 11.1987 10.0141 9.50389 8.82908 8.67356 7.833 7.53468 8.44163 7.50282
threshold=0.99756944444444462 45.908714285714289 5.9111111111111088 97.65000000000002 0.61413690476190486 32.836541666666669 63.440228462219245 12568.142857142859 56.828571428571429 0.082710491487594004 55.139151573181159 0.45515873015873032 0.088422823817905324 68.060734113057478 70.377178351084396 73.958857059478774 75.071428571428584 9656.6428571428587 27.474833333333343 28.642857142857149 94.84285714285717 60.738920688629157 0.88481359780757185 4614.5000000000009 85.500000000000014 2917.8050000000007 27.401571428571433 19.500000000000004 1952.3000000000004 70.309523809523824
decision_type=10 8 10 8 10 10 8 10 8 8 8 8 10 8 8 8 8 10 10 10 10 8 8 10 10 10 10 2 8 8
left_child=1 3 10 4 29 7 -7 8 9 -5 -3 -12 13 -13 -15 27 17 -4 19 22 21 -21 -18 -2 -10 -8 -9 28 -16 -1
right_child=23 2 16 5 -6 6 25 26 24 -11 11 12 -14 14 15 -17 18 -19 -20 20 -22 -23 -24 -25 -26 -27 -28 -29 -30 -31
leaf_value=0.02281091859618185 0.059678452940548736 -0.052653701204914832 0.032674386147544233 0.028453377095572635 -0.03487201574436774 0.054261612723032961 -0.060364371024984091 0.0011615286749515523 -0.014179038901524742 -0.074022977957435523 0.080097454974799628 0.054987277508797151 -0.033709274906055561 -0.050375817117341765 0.06208101094460608 -0.037374554338394969 -0.068951323620748725 -0.04204103460281617 -0.069822976462246958 0.070264672407719941 -0.066729154066315702 -0.0072988333864698858 0.006653743248064831 0.009287068537467448 0.052805671824161106 0.010012094201506973 -0.064732991899745185 0.083110513127318819 -0.019117723621741731 0.064042528368251084
leaf_weight=16.220052450895309 55.400607615709305 9.9017495810985547 13.339679896831514 10.393505454063414 7.1570094674825659 10.721374139189718 24.21532049775124 9.537356913089754 5.321141153573989 9.8593392968177813 6.1901812255382529 18.958984270691872 16.400128319859505 10.409196108579634 5.6620386093854949 10.081553861498831 20.347799822688103 15.53586922585964 29.782060146331787 6.670575872063643 7.4947782456874839 14.544635683298109 5.4031573832035091 11.595612689852713 47.224622339010239 5.1647091358900061 8.20975413918495 6.7155007421970359 6.9930427819490442 38.810005739331245
leaf_count=59 199 48 50 37 29 37 106 38 20 45 21 66 68 43 19 41 103 71 149 24 39 63 22 42 163 20 35 22 27 138
internal_value=0.00687504 -0.000574548 -0.0170062 0.0168192 0.0419205 0.00481 -0.0203446 0.0160159 0.0271404 -0.0213063 0.00369318 0.010664 0.00478494 0.0156417 -0.00303769 0.0136376 -0.033748 -0.00735844 -0.0427147 -0.0276981 -0.00478826 0.0170697 -0.0529298 0.0510581 0.0459133 -0.0478313 -0.0292328 0.0404996 0.0170215 0.0520437
internal_weight=464.261 397.265 204.431 192.834 62.1871 130.647 40.1014 90.5457 72.7986 20.2528 91.3124 81.4106 75.2204 58.8203 39.8613 29.4521 113.119 28.8755 84.243 54.4609 28.71 21.2152 25.751 66.9962 52.5458 29.38 17.7471 19.3706 12.6551 55.0301
internal_count=1844 1603 876 727 226 501 163 338 265 82 355 307 286 218 152 109 521 121 400 251 126 87 125 241 183 126 73 68 46 197
is_linear=0
shrinkage=0.05


Tree=14
num_leaves=31
num_cat=0
split_feature=79 51 84 81 50 44 43 69 45 0 51 43 69 57 63 81 63 81 27 65 63 57 44 38 13 51 57 74 63 42
split_gain=56.2865 41.5729 21.2825 17.8857 17.3969 15.4538 24.2076 19.0327 15.598 14.0657 13.4331 30.2096 16.6427 24.2361 20.9679 12.7319 12.1282 23.791 9.58099 9.21799 8.76656 8.38362 8.35774 10.5615 8.06867 7.25528 7.16399 11.1549 6.78869 7.57853
threshold=0.99756944444444462 45.908714285714289 97.65000000000002 0.61413690476190486 35.338166666666687 54.293935139973968 61.157273292541511 7513.857142857144 65.692436172848673 5.8916666666666684 32.836541666666669 63.440228462219245 12568.142857142859 57.414285714285718 0.082710491487594004 0.49801587301587313 -0.28186701109345097 0.52346230158730178 97.309523809523824 4739.0000000000009 -0.14719408746268361 36.458333333333336 70.491751352945968 1.3029705040628576 2917.8050000000007 27.401571428571433 70.309523809523824 30.833333333333339 0.36114125863691732 64.052697181701674
decision_type=10 8 8 10 10 8 8 8 8 8 10 8 10 8 8 10 10 10 10 10 8 10 10 8 10 10 8 2 10 10
left_child=1 2 3 26 5 -3 -7 18 21 -10 12 -12 13 14 -4 -11 -6 -18 28 -2 -15 -9 23 -17 -13 -14 27 -1 29 -8
right_child=19 4 10 -5 16 6 7 8 9 15 11 24 25 20 -16 22 17 -19 -20 -21 -22 -23 -24 -25 -26 -27 -28 -29 -30 -31
leaf_value=-0.023094111694767008 0.057297782829978619 -0.066369800663553982 0.028321851127724024 -0.033342011860832931 -0.068888983170368678 0.055959077440137062 -0.022191783027125767 0 0.06240511061809767 -0.039859784591366479 0.051809895431429755 -0.058406473400941822 0.0011038650907971932 -0.0098021262823658646 -0.072272165500228122 0.058270399305516724 -0.040795554736561053 0.048336979554541228 0.024613691802177158 0.0049038627796266446 0.051979702231723227 -0.077945150677709601 0.070858001140809979 -0.022955247056282348 0.0095046713568747304 -0.062573217049487428 0.062135241438942605 0.059460542051970856 0.012433157764646811 -0.070108619217415138
leaf_weight=7.3654185384511974 55.773176982998848 9.7334831357002241 10.667645558714865 7.1167854070663443 20.886227756738663 16.005926474928856 14.520857051014898 6.8191811293363553 14.454334855079649 11.200106516480444 10.673221439123152 23.789927080273632 9.5389760285615939 6.3884164690971375 9.8247585296630877 6.0707651823759141 36.669269531965256 9.2657842785119993 5.8503207117319098 10.152155354619024 45.306196808815002 6.8066198378801346 6.8249928802251807 11.222799137234686 5.1735193580389014 8.0753380656242353 38.024331539869308 8.8335639089345914 4.6793112605810157 20.680938720703125
leaf_count=29 204 52 38 29 107 57 60 28 51 53 37 106 38 24 46 22 175 33 22 37 157 30 23 44 20 35 138 30 19 100
internal_value=0.00661166 -0.00056111 0.0161535 0.0403976 -0.0163963 -0.00600572 -0.00122125 -0.0096971 0.00797318 0.0210172 0.0046034 -0.0195548 0.0153319 0.0259974 -0.0197803 0.00380948 -0.0372532 -0.0226416 -0.034267 0.0493248 0.044244 -0.0391164 0.0243758 0.00544197 -0.046113 -0.0279953 0.0502114 0.0217061 -0.0430694 -0.0506033
internal_weight=458.394 392.469 190.778 61.3401 201.691 134.87 125.136 109.13 63.3988 49.773 129.438 39.6367 89.8013 72.187 20.4924 35.3187 66.8213 45.9351 45.7314 65.9253 51.6946 13.6258 24.1186 17.2936 28.9634 17.6143 54.2233 16.199 39.8811 35.2018
internal_count=1844 1603 727 226 876 561 509 452 251 193 501 163 338 265 84 142 315 208 201 241 181 58 89 66 126 73 197 59 179 160
is_linear=0
shrinkage=0.05


Tree=15
num_leaves=31
num_cat=0
split_feature=75 48 44 43 13 57 86 45 39 63 67 57 49 45 12 6 63 68 52 27 44 74 27 48 42 69 63 75 19 49
split_gain=52.557 22.5383 17.7095 26.6424 16.317 16.1503 15.6337 15.4008 15.0399 15.0248 13.6947 11.9009 10.7896 13.6783 10.4254 10.293 10.1718 9.99807 9.90595 9.82013 9.65123 9.63996 12.0484 9.17136 11.6407 10.4539 11.3444 12.0365 10.4373 8.7542
threshold=5.7857142857142865 26.781500000000005 53.542874733606986 61.055859088897712 2074.1550000000002 65.242857142857162 95.25833333333334 64.287353958402377 0.96269950809826887 0.4065012291259979 8360.5000000000018 76.642857142857153 44.555500000000002 61.110565866742824 8412.0000000000018 23.423500000000001 -0.1440593384093484 9344.8333333333339 -22.261499999999998 95.845238095238116 73.047059535980239 53.166666666666679 93.071428571428584 39.085500000000003 68.714587211608901 11739.500000000002 0.099180724606144036 25.642857142857149 6.7583333333333337 59.290500000000009
decision_type=8 8 8 10 8 8 10 10 10 10 8 10 10 10 8 10 8 10 10 8 8 2 8 10 10 8 10 10 8 8
left_child=4 5 29 8 -1 18 7 19 20 11 -6 23 13 17 -13 -16 -7 -10 -2 -5 -4 22 -8 24 25 26 27 28 -9 -3
right_child=1 2 3 6 10 16 21 9 12 -11 -12 14 -14 -15 15 -17 -18 -19 -20 -21 -22 -23 -24 -25 -26 -27 -28 -29 -30 -31
leaf_value=0.05826547110165451 0.020375660160354567 0.012499130639054567 0.052816242582955288 -0.064188026345206192 -0.057330827880556094 -0.01285540959241423 0.039118788910468279 0.025024462000189693 0.075973010727165849 0.046485146991872006 0.035331100083617041 0.070217602187224809 -0.036482533713896294 -0.049162804587168256 0.040192999125343153 -0.041613606357670169 0.050471699113832438 -0.011683183268020314 -0.072538187183706235 -0.0036442445772530566 -0.0034709415652840673 0.046860600715252713 -0.025243924127369661 -0.069054061123790589 -0.036598576572882985 -0.07096039324112513 -0.044655837660009183 0.036206797693779762 -0.063339812899830414 -0.067179689029678719
leaf_weight=55.850485354661942 5.5730199813842773 4.1840191930532482 35.278015837073326 25.904524028301239 6.0629913955926922 7.3638809621334076 11.281942278146746 6.0989152938127491 9.3594514727592486 10.257997944951056 11.173133611679075 6.4831601530313518 14.165526509284971 4.9898475259542456 6.8441643714904776 8.4810394495725614 39.530599072575569 4.7833872586488715 5.6122037172317487 9.2788987755775434 9.4811794161796552 14.83609166741371 19.997733652591705 9.7225206494331342 45.749022170901299 4.9147309809923163 9.2214435189962369 26.244501799345016 7.047052040696145 16.563094615936279
leaf_count=206 21 18 126 123 26 29 41 24 33 37 42 22 68 21 25 37 143 21 26 37 36 56 88 49 204 23 41 98 34 89
internal_value=0.00636313 -0.00110991 -0.00630798 -0.00319671 0.0451578 0.0275098 -0.0120329 -0.0188248 0.0218945 -0.0113793 0.00230518 -0.0159873 -0.00341528 0.0208696 0.01754 -0.0047313 0.0404148 0.046101 -0.0260306 -0.0484182 0.0408005 0.0138008 -0.00181958 -0.0227512 -0.0181013 -0.00215979 0.00482479 0.0166187 -0.0220874 -0.0508883
internal_weight=452.335 379.248 321.168 300.421 73.0866 58.0797 222.364 176.248 78.0574 141.065 17.2361 130.807 33.2982 19.1327 21.8084 15.3252 46.8945 14.1428 11.1852 35.1834 44.7592 46.1158 31.2797 108.998 99.2757 53.5266 48.6119 39.3905 13.146 20.7471
internal_count=1844 1570 1351 1244 274 219 939 754 305 594 68 557 143 75 84 62 172 54 47 160 162 185 129 473 424 220 197 156 58 107
is_linear=0
shrinkage=0.05


Tree=16
num_leaves=31
num_cat=0
split_feature=75 50 57 86 44 43 81 63 45 50 53 21 86 87 75 47 3 45 84 50 27 1 33 75 85 13 44 42 44 43
split_gain=48.6337 27.6779 21.458 21.0922 19.6578 31.0055 16.7814 20.4415 14.859 14.6555 12.2631 11.8737 11.6344 10.3439 9.81235 13.1949 14.2703 13.8887 11.4838 16.7184 10.2493 9.39951 12.0353 9.8931 9.3781 7.85526 7.28546 7.19867 6.86407 6.64288
threshold=1.0000000180025095e-35 45.113500000000037 70.380952380952394 94.433333333333351 54.293935139973968 61.055859088897712 0.53100198412698429 -0.058477220277447554 71.196593597957076 22.942333333333341 74.500000000000014 6.4916666666666663 95.483333333333334 95.007142857142881 24.071428571428573 35.111500000000007 0.44129920712199194 68.117521762847915 95.450000000000017 32.113666666666681 94.071428571428584 93.500000000000014 0.9078875468797919 41.171428571428585 93.850000000000009 2121.1900000000005 54.293935139973968 66.730126857757583 70.126753648122175 71.941119670867934
decision_type=8 10 10 10 8 10 10 10 10 8 10 10 10 8 10 8 10 8 10 10 8 10 10 10 10 10 10 10 10 10
left_child=24 2 4 9 -2 8 13 -8 12 -4 -11 -12 26 -3 15 20 17 -17 19 21 -7 22 23 -16 25 -1 -6 -22 -25 -23
right_child=1 6 3 -5 5 14 7 -9 -10 10 11 -13 -14 -15 18 16 -18 -19 -20 -21 27 29 -24 28 -26 -27 -28 -29 -30 -31
leaf_value=0.066896648906308503 -0.066550298322913065 0.019148165700343181 0.077708126048633488 0.060625327791301309 0.0073418512482890915 -0.040776488428329212 -0.053490237588124427 0.062273543902509478 -0.03260587135753882 -0.048541369326212641 0.040670882769263415 -0.030627274269598454 -0.013567196478417058 -0.05008981012356091 0.05013002370778466 0.046575000383884943 -0.06438484056922493 -0.038470189309775901 0.050214381148043788 -0.046726953257996265 -0.024071007712810528 0.029344367478361194 -0.048638786546523399 -0.052880422458152665 -0.011800440257974476 0.0025939487776752319 0.060063563825429815 0.046468586408696881 0.022354060229208883 -0.022994786028635961
leaf_weight=40.256012752652168 10.73697644472122 5.929623305797576 6.085031419992446 31.795354545116425 8.1762654632329923 7.9787923991680172 6.1838216781616202 9.5334651917219144 7.5336306095123282 11.296100080013273 15.566275507211687 9.1488017588853818 7.9880949705839148 46.854307323694229 8.9573383927345294 7.3642643541097668 24.787806659936905 13.27441070973873 10.663561001420019 18.621973320841789 4.8275650739669826 37.697546318173409 14.344367027282713 6.6026118248701078 5.0129732042551032 5.5768443346023551 38.964460164308548 12.952587142586706 5.3454452902078629 7.0347323119640341
leaf_count=153 59 23 21 120 30 33 30 33 30 49 56 38 32 241 32 27 125 55 38 84 20 145 64 28 20 22 138 46 20 32
internal_value=0.0061102 0.000185077 0.00624091 0.0299359 -0.000645646 0.00227058 -0.028683 0.016361 0.032559 0.00654894 -0.0055187 0.0140598 0.0415975 -0.0421957 -0.0082316 -0.0226662 -0.0388623 -0.00780513 0.00113861 -0.00416354 0.00574266 0.0057299 -0.0134717 0.0105371 0.052096 0.059204 0.05106 0.0270089 -0.0189001 0.0209689
internal_weight=447.091 396.245 327.744 73.8916 253.852 243.115 68.5012 15.7173 62.6625 42.0962 36.0112 24.7151 55.1288 52.7839 180.453 71.1854 45.4265 20.6387 109.268 98.604 25.7589 79.982 35.2498 20.9054 50.8458 45.8329 47.1407 17.7802 11.9481 44.7323
internal_count=1844 1649 1322 284 1038 979 327 63 230 164 143 94 200 264 749 306 207 82 443 405 99 321 144 80 195 175 168 66 48 177
is_linear=0
shrinkage=0.05


Tree=17
num_leaves=31
num_cat=0
split_feature=75 51 57 57 83 44 45 51 13 9 87 57 45 19 68 13 7 95 9 48 27 13 35 45 68 12 75 61 32 77
split_gain=45.2336 30.0465 18.9459 18.6347 17.045 16.564 27.9715 16.4985 14.6297 14.0244 10.376 12.3257 15.2555 9.69963 8.74739 8.68916 8.55973 8.05763 9.50414 8.71708 10.0906 7.32184 6.45806 8.06273 9.91316 9.39965 9.42329 9.84038 7.78347 7.77882
threshold=5.7857142857142865 46.674357142857147 70.380952380952394 13.800000000000002 93.850000000000009 54.293935139973968 61.110565866742824 32.836541666666669 2074.1550000000002 74.500000000000014 95.007142857142881 75.071428571428584 63.049951757703518 5.5083333333333337 9844.0000000000018 3955.3250000000003 68.15100000000001 1.6245617866516116 75.500000000000014 33.056500000000007 94.928571428571445 2364.4500000000003 0.91325250836120409 70.889209457806189 7340.666666666667 6405.0000000000009 41.171428571428585 -1.1509542482523327 0.93239682700464777 0.48437500000000006
decision_type=8 10 10 8 10 8 10 8 8 10 8 8 10 10 8 10 10 10 8 8 8 8 8 8 8 10 10 10 10 2
left_child=8 2 3 -2 9 -5 7 -7 -1 -4 -3 12 21 -10 -9 17 -11 22 -19 -20 -21 -12 -8 25 -25 29 27 -27 -26 -24
right_child=1 10 4 5 -6 6 15 14 13 16 11 -13 -14 -15 -16 -17 -18 18 19 20 -22 -23 23 24 28 26 -28 -29 -30 -31
leaf_value=0.055336802846905481 0.079147609744981751 0.022067727890022662 -0.032959742713502452 -0.06539372488867623 0.058725441662606896 -0.046298013271177135 -0.033445376618804333 0.059612674270836635 0.026370210529393246 0.041728718754177607 0.066949491784347129 -0.060366988063524134 -0.056673721701234803 -0.056168264983439187 0.0067906544555238315 0.055547138014618969 -0.025115850851253847 -0.049897073358086637 0.06169790039454514 -0.040328287436073529 0.038964030680337935 -0.010697839980756001 0.062734864888396344 -0.055324762538286609 0.028276895780220569 0.052926648036903182 -0.046857686785145847 -0.022924388354898254 -0.045578015205737489 0.0053230957213811891
leaf_weight=53.599239319562912 6.8570784330368033 7.3316034525632849 13.837769761681555 10.355980351567267 27.479188308119774 5.4886713176965705 41.803638771176338 28.912048757076263 11.901211813092234 23.097543045878414 5.7288978695869455 32.117924615740776 9.9915900081396085 4.9551278948783866 11.083211123943327 4.7931668311357489 5.8637610375881186 5.1195274740457561 9.4763783961534518 7.5450187325477573 8.336123913526535 6.0961834490299234 7.6564497053623191 17.779903009533882 9.1900349110364896 6.8262756168842271 15.661475807428358 11.006757572293287 5.6912646889686576 25.768207862973213
leaf_count=206 23 28 59 59 106 23 190 104 46 84 20 176 52 22 42 17 24 22 33 34 32 28 28 80 34 24 70 49 27 102
internal_value=0.00587965 -0.00108761 0.00523157 -0.00145358 0.0280404 -0.0038853 -0.000967168 0.0339304 0.0425775 0.00813149 -0.0330617 -0.0406753 -0.0113143 0.00162398 0.0451531 -0.00999481 0.0279829 -0.0118831 0.0113091 0.0240101 0.000963315 0.0267466 -0.0169222 -0.00990908 -0.0302328 0 -0.0186512 0.00596491 0 0.0187712
internal_weight=441.351 370.896 309.629 239.351 70.2783 232.494 222.138 45.4839 70.4556 42.7991 61.2662 53.9346 21.8167 16.8563 39.9953 176.654 28.9613 171.861 30.477 25.3575 15.8811 11.8251 141.384 99.5804 32.6612 66.9192 33.4945 17.833 14.8813 33.4247
internal_count=1844 1570 1266 993 273 970 911 169 274 167 304 276 100 68 146 742 108 725 121 99 66 48 604 414 141 273 143 73 61 130
is_linear=0
shrinkage=0.05


Tree=18
num_leaves=31
num_cat=0
split_feature=81 48 21 81 57 45 57 92 65 25 49 43 47 81 83 43 87 72 9 61 43 43 43 1 66 20 33 65 81 45
split_gain=42.1568 25.7012 18.9565 13.0915 13.06 13.4199 13.0301 10.894 10.5996 10.1587 10.1336 15.0348 9.05076 12.6075 8.38879 8.03569 7.39251 7.33569 8.45478 7.81004 7.30416 6.83752 6.8299 12.9044 7.08605 6.59094 6.22754 6.11889 6.43823 6.07848
threshold=0.97956349206349214 43.624000000000009 6.0361111111111114 0.40719246031746043 74.845238095238116 59.313726493290496 75.380952380952394 1.0000000180025095e-35 5240.0000000000009 95.500000000000014 44.943000000000005 65.196583271026626 57.793500000000002 0.47237103174603179 96.350000000000009 61.499297142028816 95.484523809523822 11.500000000000002 79.500000000000014 0.38517061406666647 65.883349895477309 57.205139636993415 66.366496562957778 92.500000000000014 5357.5000000000009 5.666666666666667 1.0549311000202615 5769.5000000000009 0.87266865079365086 65.876005240849096
decision_type=10 8 10 10 8 10 10 10 10 8 8 10 10 8 10 10 10 10 8 10 10 10 10 10 10 10 10 8 8 10
left_child=1 3 12 -1 5 -4 7 17 9 -7 11 -6 13 -3 -10 21 22 18 -5 25 -14 -15 24 27 -17 -19 -20 -24 -29 -27
right_child=-2 2 4 6 10 8 -8 -9 14 -11 -12 -13 20 15 -16 16 -18 19 26 -21 -22 -23 23 -25 -26 29 -28 28 -30 -31
leaf_value=-0.037998569372766293 0.053897523226020511 0.053317867805029479 0.069628039276968715 -0.040935997945391052 0.054574918343508416 -0.022634940457121524 0.047143760331524745 0.069326166077881723 -0.046008725791913792 0.062519446641216017 -0.042680323816656485 -0.061060492685651592 -0.056161160434534868 0.00961459057021289 0.026342665835671266 0 0.036180910262653791 -0.01835474499267286 -0.011208702638761748 -0.026962293316662313 0.023044955293953916 0.06262753478660725 -0.073817875672793146 0.034231879869058582 -0.073522032018946706 0.051717754675709784 0.044161742776623575 -0.033531182293065225 0.027340302318246343 0.014339289225681118
leaf_weight=9.9209307581186277 40.931135535240173 14.166099891066549 5.6885693967342368 13.910877242684363 6.8791161775588971 6.3861836642026875 35.588799551129341 7.5824763029813758 19.909402579069141 7.399331435561181 67.518251091241837 4.5914097726345062 9.9019290059804899 27.030220001935959 4.8448650240898123 5.5336457639932624 7.9559573084115973 7.2666329890489569 13.76874089241028 8.1639149636030179 3.9352630227804175 7.8976617753505698 5.2046162933111217 13.818310901522635 8.4431563913822156 21.326800510287285 7.8461575955152503 12.474615156650545 6.467563420534133 23.288905903697014
leaf_count=45 165 53 20 60 26 27 137 29 94 26 358 23 54 105 19 22 30 30 56 35 15 28 24 51 39 78 28 51 23 93
internal_value=0.00566 0.000632766 -0.00927056 0.0170521 -0.0231258 -0.0012466 0.021049 0.0119609 -0.0119904 0.0228324 -0.0352963 0.00772868 0.00459526 0.00947475 -0.031598 0.00282305 -0.00822929 0.00728965 -0.0106126 0.0179645 -0.0332727 0.0218888 -0.0151841 -0.00399863 -0.0449678 0.0251684 0.00877119 -0.0261337 -0.0124504 0.0323941
internal_weight=435.642 394.71 246.046 148.664 123.217 44.2284 138.743 103.155 38.5398 13.7855 78.9888 11.4705 122.829 108.992 24.7543 94.8257 59.8979 95.572 35.5258 60.0463 13.8372 34.9279 51.9419 37.9651 13.9768 51.8823 21.6149 24.1468 18.9422 44.6157
internal_count=1844 1679 1088 591 593 186 546 409 166 53 407 49 495 426 113 373 240 380 144 236 69 133 210 149 61 201 84 98 74 171
is_linear=0
shrinkage=0.05


Tree=19
num_leaves=31
num_cat=0
split_feature=75 51 84 57 51 44 44 50 57 95 86 63 13 85 57 13 75 44 57 50 69 49 75 44 5 31 39 71 13 95
split_gain=38.7679 28.6108 19.4007 12.8727 13.3833 11.1988 22.2877 12.3864 11.5533 11.1587 10.3546 9.49679 10.5437 8.99104 8.71379 8.35927 8.35657 10.7812 17.9344 8.03759 8.61209 9.63669 9.67883 8.49107 8.26095 10.3631 8.34503 8.43134 7.45762 7.44297
threshold=1.0000000180025095e-35 45.908714285714289 96.850000000000009 70.380952380952394 33.906314285714295 54.293935139973968 59.116977055867515 22.942333333333341 64.225000000000009 2.0918445587158243 96.383333333333368 -0.28186701109345097 3071.2550000000006 93.850000000000009 46.690476190476197 1217.2450000000001 42.928571428571438 57.878431638081871 81.214285714285737 43.25916666666668 13968.285714285716 30.518500000000003 23.214285714285719 64.50283511479698 67.939960002899184 0.75656565656565666 0.89220397383213268 48.500000000000007 2121.1900000000005 0.55931302479335454
decision_type=8 10 8 10 10 8 8 8 8 8 10 10 8 10 8 10 10 10 10 10 8 8 10 8 10 10 8 2 10 10
left_child=13 2 3 4 14 -4 -7 8 -8 10 19 -3 16 28 -2 -11 -13 18 -18 20 21 -9 -23 -24 25 -25 -26 -28 -1 -16
right_child=1 11 5 -5 -6 6 7 9 -10 15 -12 12 -14 -15 29 -17 17 -19 -20 -21 -22 22 23 24 26 -27 27 -29 -30 -31
leaf_value=0.063292795685144579 0.029565575338647804 -0.064094775793252859 -0.055212418218705067 0.059070588169296848 0.057394549107983917 0.057080459703752195 -0.029660023568526973 0.016790588828255532 0.052079022664232713 -0.028872529539364252 0.036269109045221501 0.041529197462641429 -0.058178022605631846 -0.015326914002248386 -0.073446282681368408 0.01947447201140113 0.080883815606352882 -0.044685652084233432 -0.060357528622447365 -0.074864176950017944 -0.068195224558964443 -0.037811813373565518 -0.044981985610089016 0.057589778632590419 0.036143862035663686 -0.0099193482054071545 -0.049609783734288419 0.0061480717287566954 0 0.0061762064500380338
leaf_weight=37.249033987522125 6.8211505562067094 16.308683708310127 8.60731093585491 25.592683225870132 9.6677282303571683 17.311998218297958 5.5076352804899242 25.371104657649994 18.157726168632507 10.458854362368582 9.9549589306116086 7.6129378676414516 12.312200233340262 4.8688359558582297 6.982683598995207 56.38899077475071 5.4816996902227419 14.747100561857222 3.6369156241416931 5.5350456535816184 6.8125656247138968 37.434906288981438 11.519364461302755 11.792196467518808 6.6136665344238272 10.638451278209685 15.743602186441423 11.564041912555693 5.4255577474832526 4.8018915504217148
leaf_count=153 25 96 49 103 35 65 24 97 66 43 38 29 66 20 34 217 19 76 22 26 34 178 52 42 25 47 75 46 22 20
internal_value=0.00543944 0.00014011 0.00604486 0.0334099 0.00987967 0.000544601 0.00242436 -0.00146292 0.0328008 -0.00518751 -0.0126477 -0.0314961 -0.0191233 0.0479769 -0.0147171 0.0118037 -0.00355373 -0.0182567 0.0239644 -0.0161104 -0.013656 -0.0107246 -0.0174108 -0.00604579 0.00189049 0.0254476 -0.0135688 -0.0258791 0.0553352 -0.0408026
internal_weight=430.922 383.378 323.279 53.8661 28.2735 269.412 260.805 243.493 23.6654 219.828 152.98 60.0995 43.7909 47.5434 18.6057 66.8478 31.4787 23.8657 9.11862 143.025 137.49 130.677 105.306 67.8713 56.352 22.4306 33.9213 27.3076 42.6746 11.7846
internal_count=1844 1649 1341 217 114 1124 1075 1010 90 920 660 308 212 195 79 260 146 117 41 622 596 562 465 287 235 89 146 121 175 54
is_linear=0
shrinkage=0.05


Tree=20
num_leaves=31
num_cat=0
split_feature=81 51 84 5 43 51 13 51 43 69 63 81 46 62 62 69 13 11 81 51 44 51 75 75 75 30 54 55 20 20
split_gain=36.5039 27.0858 17.7624 11.3753 15.9629 16.022 15.3467 14.3313 13.2589 12.903 12.7597 12.5392 12.5088 11.1604 10.4612 10.3436 12.6405 10.2957 9.54493 11.2387 9.3559 9.31742 16.5594 9.22414 7.93603 7.8405 9.2779 7.83189 7.76862 7.60619
threshold=0.97956349206349214 45.908714285714289 96.850000000000009 53.525024414062507 62.25837707519532 32.836541666666669 2824.0100000000007 26.335964285714287 67.802374839782729 12568.142857142859 0.42471547301486728 0.53789682539682548 -1.9767680168151853 0.2125392663611313 -0.11740688090214253 7513.857142857144 1824.9100000000001 -0.099808897026669272 0.56919642857142871 33.906314285714295 70.784697214762375 28.135500000000004 77.214285714285737 66.785714285714292 51.000000000000007 1.2611166007905141 77.500000000000014 73.500000000000014 6.0472222222222189 5.9666666666666686
decision_type=10 10 8 8 10 8 10 8 10 10 10 10 10 8 8 10 8 8 10 8 10 8 10 8 10 8 8 8 8 10
left_child=1 2 18 -4 7 9 10 -5 24 11 12 -6 15 14 -3 16 -7 -13 -1 -20 -9 22 -11 -16 -8 26 -19 -14 -29 -10
right_child=-2 13 3 4 5 6 8 20 29 21 -12 17 27 -15 23 -17 -18 25 19 -21 -22 -23 -24 -25 -26 -27 -28 28 -30 -31
leaf_value=0.046648408888561609 0.051324464978630552 -0.042134609850115023 -0.062316637065473579 -0.051959278176004355 0.049438599571875186 0.014828196786723417 0.014665674692346168 0.036305318616205097 0.068534499026693771 -0.06798161295431808 0.052593513254783245 0.049726193005699748 0.0068791375346040837 -0.060595432192930267 0.028152870730499324 0.036212490216155753 -0.071556955761960347 -0.036357999775493928 -0.040337588048921569 0.040537498958907223 -0.028898570677861932 -0.074145400189929184 0.05894054545909394 -0.051860562098169187 -0.061691673686139176 -0.043033426618585981 0.048398061636917449 -0.02030814657489332 -0.063028092266331714 0
leaf_weight=36.903959706425667 38.921775117516518 18.107412412762642 6.8087472766637793 5.6685515344142905 26.812076196074486 8.5625301152467781 6.762280538678171 57.769622012972832 10.926058635115625 4.4631081968545931 4.7219452112913123 8.7581488639116269 6.5910462141036978 20.33448888361454 15.774787545204164 10.430353268980978 8.0841459929943067 5.3697532564401635 8.2295723110437411 8.762108772993086 5.918990269303321 6.1176582276821128 5.7729742079973221 4.5356875061988822 6.5323783159255981 11.533308312296866 7.686335265636445 15.789067521691321 36.229242891073227 6.3866248875856391
leaf_count=151 165 96 38 26 98 33 26 222 39 22 18 31 27 123 64 39 36 24 35 35 24 28 20 25 31 49 27 70 195 27
internal_value=0.00523458 0.000566276 0.00618791 0.000998164 0.0026549 -0.00457161 -0.0159084 0.0232849 0.0145538 0.013291 -0.0262811 0.0240348 -0.0307422 -0.0306511 -0.0145556 -0.0024231 -0.0270014 0.0033735 0.0323994 0.00106794 0.0301313 -0.0258338 0.00299425 0.00987294 -0.02266 -0.0130682 0.0131478 -0.0437138 -0.0502211 0.043384
internal_weight=425.265 386.343 327.591 273.695 266.886 197.529 121.016 69.3572 30.6073 76.5134 90.4083 60.1596 85.6864 58.7524 38.4179 27.077 16.6467 33.3475 53.8956 16.9917 63.6886 16.3537 10.2361 20.3105 13.2947 24.5894 13.0561 58.6094 52.0183 17.3127
internal_count=1844 1679 1371 1150 1112 840 541 272 123 299 418 229 400 308 185 108 69 131 221 70 246 70 42 89 57 100 51 292 265 66
is_linear=0
shrinkage=0.05


Tree=21
num_leaves=31
num_cat=0
split_feature=81 51 8 45 43 49 33 69 45 31 81 57 51 18 63 81 12 85 13 33 63 77 50 23 87 47 87 86 51 3
split_gain=33.9267 24.9355 16.6118 13.8974 20.3839 11.9362 12.3103 10.6268 10.2448 10.7506 10.186 9.27107 17.3093 9.10037 8.98636 14.1912 8.71819 8.04224 7.99493 7.54579 7.41815 7.1852 8.05263 7.16602 6.87299 7.06479 6.38715 5.98674 5.85834 5.74014
threshold=0.97956349206349214 45.908714285714289 97.050000000000011 54.104070731571753 61.055859088897712 30.951000000000004 0.92506173321764795 14462.085714285717 74.74738268852235 0.95967479674796763 0.64518849206349216 64.464285714285737 27.093392857142863 5.0916666666666677 -0.28186701109345097 0.52346230158730178 14508.500000000002 95.350000000000009 1278.5650000000003 0.91309691036674867 0.44234300669357562 0.84131944444444462 26.483666666666682 96.500000000000014 95.969047619047629 10.463500000000002 95.15000000000002 95.683333333333351 99.802142857142869 1.0805524657026326
decision_type=10 10 8 8 8 8 10 8 10 8 10 8 10 8 10 10 8 10 10 10 10 2 8 10 8 10 8 10 10 8
left_child=1 2 10 -4 17 7 8 11 9 23 24 12 -6 -8 -3 26 -13 -5 -11 -12 21 22 -15 29 -1 -26 -16 -24 -28 -7
right_child=-2 14 3 4 5 6 13 -9 -10 18 19 16 -14 20 15 -17 -18 -19 -20 -21 -22 -23 27 -25 25 -27 28 -29 -30 -31
leaf_value=0.063405238700486186 0.050072954283053042 -0.062599161167079684 -0.065171899979093423 0.057230873897720747 -0.071697005455867713 -0.073059422762629278 0.012987183427289262 -0.050836361815990584 -0.062560869208684325 -0.042207399463250965 0.026863963915915164 0.04455670385117616 0.036634118140740309 0.028275593741722713 0.013931479186977434 0.035704514290258692 -0.017525216486849814 -0.013793632528935127 0.024910910634658376 -0.054962619139202251 0.030642881664641238 0.012264982452693156 -0.050400182213924699 0.028552066366768398 -0.030400963958818417 0.037026145031122358 -0.05362711942875819 0.0075469493063511795 0.0081494013717221241 -0.012861580222719413
leaf_weight=20.225827783346176 37.927769422531128 15.288540780544279 7.6417842954397193 21.691305369138721 6.4723257869482032 6.5936903357505861 14.765632405877112 5.1803298145532599 5.2654467970132819 4.6754249334335318 5.8481516242027265 36.079997316002846 8.2572569996118528 3.850901022553443 5.7167883664369574 9.49616491794586 6.5199996531009665 4.704734042286872 56.161275342106819 5.1983278840780258 4.5555535554885855 7.1531439423561087 49.130773290991783 5.4039426594972602 4.7503101080656078 18.470843523740768 22.712422773242 4.7119216918945304 4.4211290627717963 10.463526621460913
leaf_count=82 165 96 46 82 31 33 60 25 25 20 23 136 30 14 23 36 27 20 215 24 18 29 250 22 23 75 133 18 20 43
internal_value=0.00503624 0.000532663 0.00594179 0.000823688 0.00279452 -0.0018672 -0.00866155 0.0168113 0.00430327 0.00865981 0.0310934 0.023089 -0.010793 -0.0223517 -0.0297249 -0.0176188 0.0349191 0.0443787 0.0196099 -0.0113416 -0.02995 -0.0343243 -0.0401984 -0.0207326 0.0419987 0.0229471 -0.0332465 -0.0452318 -0.0433847 -0.0367135
internal_weight=419.335 381.407 323.772 269.279 261.637 235.241 172.731 62.5099 88.5633 83.2979 54.4935 57.3296 14.7296 84.1679 57.635 42.3465 42.6 26.396 60.8367 11.0465 69.4023 64.8467 57.6936 22.4612 43.447 23.2212 32.8503 53.8427 27.1336 17.0572
internal_count=1844 1679 1371 1144 1098 996 747 249 358 333 227 224 61 389 308 212 163 102 235 47 329 311 282 98 180 98 176 268 153 76
is_linear=0
shrinkage=0.05


Tree=22
num_leaves=31
num_cat=0
split_feature=79 48 21 44 45 86 93 81 57 74 65 32 57 41 63 7 32 57 5 88 9 27 63 45 66 44 12 41 31 68
split_gain=31.5569 20.2097 12.8588 13.5585 17.2892 11.7562 10.7301 10.3653 12.3737 11.3489 9.59302 13.1796 9.29506 8.76653 11.6277 11.0652 8.23947 7.84107 7.81232 7.49047 9.55974 9.98781 7.40988 7.13382 9.50568 8.43101 7.10269 7.09451 6.97278 6.25739
threshold=0.99756944444444462 43.624000000000009 6.1797619047619046 59.437507708867393 54.463708332606735 96.283333333333346 1.0000000180025095e-35 0.41820436507936515 75.380952380952394 41.833333333333336 5343.5000000000009 0.86954245961595189 79.357142857142875 52.977849483489997 0.082710491487594004 56.181500000000007 1.411859526375659 70.380952380952394 68.731931209564223 -3.3999999999999981 81.500000000000014 94.071428571428584 -0.2273228151538724 74.74738268852235 3119.5000000000005 70.894002676010146 4614.5000000000009 71.666881561279311 0.44034090909090912 4622.3333333333348
decision_type=10 8 10 10 10 10 10 10 10 2 10 10 10 8 8 10 8 8 8 10 8 10 10 10 8 10 10 10 10 10
left_child=1 6 13 4 -4 10 7 18 9 16 11 -5 -6 -3 15 -15 17 29 -1 20 -19 -22 -10 24 -16 -26 -2 -23 -27 -9
right_child=26 2 3 5 12 -7 -8 8 22 -11 -12 -13 -14 14 23 -17 -18 19 -20 -21 21 27 -24 -25 25 28 -28 -29 -30 -31
leaf_value=-0.070092558706553995 0.048098912617580578 -0.053916752391045479 -0.04517438533633656 0.03912626092983202 0.053295638623139088 0.020788843516585262 0.065893014932586702 0.0087052148521775188 -0.012479916740339081 0.030618614449572909 -0.055051261738738734 -0.041077804678134176 -0.024194553941734961 0.045928777640284163 0.053720339689798724 -0.024261420105128283 0.052883751275064894 -0.06433696822090014 0.013232278289821828 0.05216771399632756 -0.047007052244310538 -0.0014649514938548359 0.054199763250984523 -0.06541532692824413 -0.01670753910230021 0.065251623914339515 0.0027679960493104676 0.064246319651545286 -0.013821182036314335 -0.053545999146369629
leaf_weight=6.5638956278562519 45.775257840752602 6.573054000735282 10.81560328602791 7.4784861057996777 14.68111337721348 8.4562595039606077 9.2871958613395673 5.2824826240539577 4.8409402072429684 29.95550249516964 43.537613391876221 15.51795309782028 5.0749233216047278 24.951233252882957 6.8456828892230979 7.0660225600004187 5.1254865676164618 6.0284021645784405 4.6702321916818628 5.9853311777114859 6.2712875902652767 9.3541007637977618 24.385292112827301 4.6020386964082709 50.384755477309227 6.3354701399803144 10.954970210790632 7.0226888060569754 4.7129071801900864 15.122845083475111
leaf_count=34 199 43 66 30 57 37 39 21 21 120 247 82 28 94 25 31 19 27 19 26 28 38 98 24 215 22 42 25 20 67
internal_value=0.0048466 -0.000649319 -0.0102131 -0.022714 0.00519888 -0.0341517 0.0141489 0.0103837 0.0147413 0.00549342 -0.0412303 -0.0147223 0.0331166 0.00158995 0.00516374 0.0302552 -0.00695752 -0.0127038 -0.0352006 0.00165228 -0.00886215 0.00590209 0.0429798 -0.00581703 -0.00163716 -0.00796435 0.0394535 0.0266288 0.0312516 -0.0372229
internal_weight=413.659 356.929 217.033 105.562 30.5716 74.9903 139.896 130.608 119.374 90.1481 66.5341 22.9964 19.756 111.471 104.898 32.0173 60.1926 55.0671 11.2341 34.6618 28.6765 22.6481 29.2262 72.8809 68.2788 61.4331 56.7302 16.3768 11.0484 20.4053
internal_count=1844 1603 1021 547 151 396 582 543 490 371 359 112 85 474 431 125 251 232 53 144 118 91 119 306 282 257 241 63 42 88
is_linear=0
shrinkage=0.05


Tree=23
num_leaves=31
num_cat=0
split_feature=79 51 21 88 44 63 57 48 69 7 75 69 42 31 57 65 13 33 32 78 57 58 75 42 65 72 28 42 13 71
split_gain=29.1011 20.6002 20.653 14.1644 10.7221 12.9343 10.3171 10.1948 13.9213 9.44413 9.1361 19.7481 11.899 12.883 9.51418 6.73757 6.58624 6.40264 9.3983 6.37551 6.18869 7.72316 6.65254 10.1797 6.15933 6.1198 5.91239 6.05868 8.9992 5.74684
threshold=0.99756944444444462 45.908714285714289 6.1797619047619046 -3.3999999999999981 53.542874733606986 0.082710491487594004 57.414285714285718 22.917000000000005 7407.7857142857147 56.181500000000007 28.642857142857149 9656.6428571428587 59.070542812347419 1.4258094357076783 71.642857142857153 4739.0000000000009 3907.6100000000001 0.91309691036674867 0.9444606792648893 0.4399305555555556 76.214285714285737 -1.4999999999999998 14.000000000000002 63.795985698699958 5443.5000000000009 16.500000000000004 1.0000000180025095e-35 60.009345054626472 2933.0100000000007 32.500000000000007
decision_type=10 8 10 10 8 8 8 8 10 10 10 10 10 8 8 10 10 10 8 10 10 8 10 8 8 10 10 10 8 2
left_child=1 3 4 7 -3 9 -5 25 19 -6 -4 12 -12 14 -14 -2 26 18 -10 -9 21 -21 24 -24 -23 -1 27 28 -7 -29
right_child=15 2 10 6 5 16 -8 8 17 -11 11 -13 13 -15 -16 -17 -18 -19 -20 20 -22 22 23 -25 -26 -27 -28 29 -30 -31
leaf_value=-0.0011593412239066648 0.046205966887860217 -0.054225173643046048 -0.057829356604136496 -0.031271095666628376 0.051802692482441307 0.026691579805082272 0.044985087771728847 0.054932649753937829 -0.029577697735524905 -0.025990584669246416 0.044592191868820456 -0.053095550685360031 0.022600539678745396 0.066673116738408339 -0.058670662410593356 0 0.050501547696423135 -0.035857485343073252 0.053306656547369373 -0.048450305457902021 0.056965017506105414 0.0097697719630660974 -0.02917043675146724 0.044410022172658575 -0.050607435614319241 0.052906489500513278 0.028178703338090107 -0.056295457080640744 -0.039677712242635325 -0.01016543101933564
leaf_weight=7.8380132168531444 45.963765501976013 7.4353249147534362 22.988971099257469 4.8581782132387152 21.206179946660999 14.66729746758938 38.65261647105217 7.6791602820157996 8.1570099592208827 4.6178733110427848 12.050397440791128 25.809873983263969 4.875045642256743 3.6195964962244025 12.495835423469542 9.6979072242975217 4.9549858272075644 32.480296209454536 5.7202048003673562 6.7857765108346939 5.3166228979825965 10.038814648985865 6.1639693230390575 18.181119859218597 7.038052409887313 14.622229769825934 8.9384214878082258 12.493081107735636 7.6893161982297888 15.371915176510809
leaf_count=33 204 50 139 23 78 56 163 30 36 21 54 157 21 14 75 37 19 151 21 30 19 39 27 69 30 56 36 59 34 63
internal_value=0.00466443 -0.000627375 -0.0125273 0.0116335 0.00298906 0.0078295 0.0363039 0.00331776 -0.00304648 0.0376522 -0.0310311 -0.0203976 0.00507659 -0.0174757 -0.0355773 0.038231 -0.00414445 -0.0237252 0.00436656 0.0125479 0.00628255 0.000483145 0.00871726 0.0255324 -0.0149727 0.0338959 -0.00888323 -0.0156218 0.00356689 -0.0311537
internal_weight=408.408 352.746 179.214 173.532 97.3744 89.9391 43.5108 130.021 107.561 25.8241 81.8397 58.8507 33.0409 20.9905 17.3709 55.6617 64.115 46.3575 13.8772 61.2035 53.5244 48.2077 41.422 24.3451 17.0769 22.4602 59.16 50.2216 22.3566 27.865
internal_count=1844 1603 876 727 416 366 186 541 452 99 460 321 164 110 96 241 267 208 57 244 214 195 165 96 69 89 248 212 90 122
is_linear=0
shrinkage=0.05


Tree=24
num_leaves=31
num_cat=0
split_feature=81 51 92 57 57 69 81 83 5 43 51 9 62 75 5 21 57 51 62 69 51 63 75 81 43 12 81 33 69 19
split_gain=27.5496 20.6243 13.7651 13.4281 13.2381 13.5669 13.5649 13.6032 12.6649 17.1824 16.4269 11.1733 9.8277 9.73049 18.9431 10.9038 10.1187 9.55379 9.43715 9.00141 10.3415 12.8374 12.4915 9.21977 8.80892 8.37813 8.09677 7.78319 7.83807 7.27479
threshold=0.97956349206349214 46.936214285714293 1.0000000180025095e-35 13.800000000000002 70.380952380952394 12890.500000000002 0.40719246031746043 93.850000000000009 53.760607719421394 62.603767395019538 32.145166666666675 76.500000000000014 0.2125392663611313 49.214285714285722 70.556778430938735 5.9845238095238082 23.666666666666668 32.925725000000007 -0.17424988774544539 8506.6428571428605 22.79467857142858 0.39873314346207217 22.642857142857149 0.63898809523809541 53.897485733032234 7972.5000000000009 0.52346230158730178 1.0871447018881026 7736.1428571428578 7.6750000000000016
decision_type=10 10 10 8 10 10 10 10 8 10 8 10 8 8 10 8 10 10 10 10 10 8 10 8 10 8 10 10 10 8
left_child=1 2 3 -1 5 8 -6 11 -5 10 -10 -8 18 15 29 16 17 27 -3 20 21 -17 -23 25 -12 -22 -20 28 -11 -15
right_child=-2 12 -4 4 6 -7 7 -9 9 13 24 -13 -14 14 -16 19 -18 -19 26 -21 23 22 -24 -25 -26 -27 -28 -29 -30 -31
leaf_value=0.074208220381933213 0.046729479643542092 -0.04646475535524841 0.063996760588639887 -0.064972637353571172 -0.043261080248328157 -0.060895895582078058 -0.018872145848710883 0.060129369663304004 -0.040812582666881557 0.013938177506367951 0.012919905254714382 0.036433136061499491 -0.0582210556786876 -0.02958809932637152 0.075217624833523469 -0.059136412312483136 -0.053024482482236845 -0.039870018268649728 -0.013994693327502476 -0.062812354664605205 0.039779983829828822 -0.037636513542306571 0.05059929290052502 -0.049636672967543122 0.051832890825904754 -0.030695900580678087 0.049844618161682855 -0.022423006106813314 0.078393059812688265 0.027792473921593897
leaf_weight=6.4606864452362052 35.130730032920837 12.910845115780829 9.5944128930568677 7.4147391319274893 7.0343694239854804 9.8379723131656629 17.010640546679497 22.437980994582176 8.9416819065809232 9.5057725459337323 31.359633639454842 19.345710456371307 18.108949035406113 14.957257688045503 9.342552110552786 22.252516239881523 5.6366093456745139 5.3901273012161246 14.791982114315035 13.579142436385153 15.704879716038709 9.4947275370359367 6.7903273403644553 5.7763313502073279 27.902220815420151 5.5895878821611396 7.3157564103603354 4.8869242519140235 9.8306854814290983 8.5650817155837995
leaf_count=23 165 75 43 47 34 50 74 99 40 37 127 74 122 70 34 131 28 25 76 71 59 43 25 26 108 24 27 20 34 33
internal_value=0.00449024 0.000430196 0.00531139 0.00342885 0.00185629 -0.00372611 0.0216462 0.0295571 -0.00115449 0.00104718 0.021798 0.0104386 -0.0283399 -0.00853513 0.0153362 -0.0154417 0.00756687 0.0194077 -0.0126235 -0.0257436 -0.0179113 -0.0345341 -0.000455684 0.00560857 0.031382 0.02099 0.00703479 0.0329133 0.0471991 -0.00845351
internal_weight=402.901 367.77 314.643 305.048 298.587 232.759 65.8287 58.7943 222.921 215.506 68.2035 36.3564 53.1275 147.303 32.8649 114.438 35.2501 29.6135 35.0186 79.1875 65.6084 38.5376 16.2851 27.0708 59.2619 21.2945 22.1077 24.2234 19.3365 23.5223
internal_count=1844 1679 1379 1336 1313 1032 281 247 982 935 275 148 300 660 137 523 144 116 178 379 308 199 68 109 235 83 103 91 71 103
is_linear=0
shrinkage=0.05


Tree=25
num_leaves=31
num_cat=0
split_feature=51 43 44 51 51 57 63 45 20 62 11 86 43 63 63 63 71 20 38 69 78 69 44 37 64 13 9 13 69 69
split_gain=24.5052 19.0624 20.1492 19.3877 17.0427 12.596 14.059 12.382 10.1019 9.80235 9.7068 9.38033 7.88056 7.64636 7.53634 8.58974 9.13207 7.03817 7.5039 7.88313 7.43659 9.08278 6.1171 6.05025 5.958 5.93532 5.80227 5.24321 5.11291 4.99524
threshold=45.908714285714289 62.603767395019538 53.674241224924728 29.93395833333334 25.811714285714288 71.309523809523824 0.13231953071581823 71.196593597957076 7.4569444444444448 0.2125392663611313 -0.05052532495000505 96.466666666666683 72.078464508056655 0.47588064610651437 0.023570888714713033 -0.042341175261401895 120.50000000000001 7.2805555555555532 1.0719541302832549 7847.5000000000009 0.88645833333333346 5457.9047619047624 64.669224580129011 1.4105745584618827 0.15799700001623765 1610.4250000000002 76.500000000000014 2933.0100000000007 12232.785714285716 12658.285714285716
decision_type=10 10 8 8 8 8 10 10 8 8 10 10 10 10 10 10 2 10 10 10 10 10 10 10 10 8 10 10 10 10
left_child=1 2 28 5 -4 6 12 -6 29 10 23 13 22 14 15 16 17 18 20 -20 -5 25 -3 -2 -12 -22 27 -16 -1 -7
right_child=9 3 4 11 7 8 -8 -9 -10 -11 24 -13 -14 -15 26 -17 -18 -19 19 -21 21 -23 -24 -25 -26 -27 -28 -29 -30 -31
leaf_value=-0.062147034123199919 -0.047558692065202302 -0.0017615236485498125 -0.043968110083970044 -0.033509545166199493 0.039356584140789595 0.057120218120172456 -0.05854347302173657 -0.029332317483640444 -0.024370463713635531 -0.057519285199356854 0.047639303629006646 0.056363082414084588 -0.023474687560559926 0.0400483828642169 -0.04819308036338997 0.037576015313960209 0.048600584451598601 -0.056044429139684521 -0.020157891847598294 0.054741572778268223 0.013541129692165184 0.049754462808390652 0.068092504863936157 0.026186375897179405 -0.0123236139430582 -0.064844197067963447 0.01771540520772567 1.0252491535264356e-05 0.013867455434362592 0.0086370391724054623
leaf_weight=7.7513540014624578 16.573270857334141 4.8537010699510637 7.1199842095375052 33.82543733716011 105.10322491824627 29.839491054415703 8.2978946268558484 6.8422949463129035 5.339485064148902 17.658257506787777 7.8703840076923397 4.9350361227989188 7.0285944640636435 6.3372667282819739 31.011501774191856 9.4000273495912534 5.5238442420959464 10.095343038439749 6.1823842078447324 7.7174614816904068 4.7509814798831949 7.0884080827236167 8.0723801553249341 3.1777423471212378 8.3602253943681699 4.5900743156671533 4.8175021409988394 6.6378739029169074 2.8993326425552368 6.8130078911781302
leaf_count=52 95 21 34 169 449 125 42 28 25 123 32 19 29 24 156 38 22 57 30 31 19 25 30 14 44 21 19 28 15 28
internal_value=0.00433158 0.00926044 0.0243653 3.78801e-05 0.0302886 0.021552 -0.00409951 0.0350911 0.038898 -0.02704 -0.0118255 -0.0105094 0.01847 -0.0129765 -0.0155956 -0.00725187 -0.0126371 -0.0173194 -0.0110701 0.0211646 -0.0201094 0.00721252 0.0416665 -0.0353698 0.0165605 -0.0247257 -0.0329405 -0.0395845 -0.0410528 0.0482922
internal_weight=396.514 342.874 129.716 213.158 119.066 70.2446 28.2526 111.946 41.992 53.6399 35.9816 142.913 19.9547 137.978 131.641 89.174 79.7739 74.2501 64.1547 13.8998 50.2549 16.4295 12.9261 19.751 16.2306 9.34106 42.4669 37.6494 10.6507 36.6525
internal_count=1844 1536 578 958 511 300 122 477 178 308 185 658 80 639 615 412 374 352 295 61 234 65 51 109 76 40 203 184 67 153
is_linear=0
shrinkage=0.05


Tree=26
num_leaves=31
num_cat=0
split_feature=79 51 21 88 42 86 48 69 44 69 5 69 53 45 20 44 27 35 45 20 63 46 56 42 12 85 69 13 72 33
split_gain=23.5155 16.4171 17.2712 11.5971 9.51589 11.9214 8.81579 11.9782 8.80196 7.29545 8.27936 10.5995 9.0743 6.9843 12.2053 10.6199 8.97609 7.13137 6.55779 8.16847 9.54462 9.08316 6.78964 6.7353 6.37314 6.19263 6.16276 5.98969 5.53863 5.53143
threshold=0.99756944444444462 45.908714285714289 6.9190476190476184 -3.3999999999999981 59.070542812347419 97.65000000000002 22.917000000000005 7407.7857142857147 53.542874733606986 5131.3333333333348 70.556778430938735 7968.3392857142871 84.500000000000014 66.451314755848486 7.3999999999999977 64.50283511479698 94.845238095238116 0.60736889692585905 61.662997802098594 5.9111111111111088 0.099180724606144036 2.1352615356445317 79.583333333333357 67.106587409973159 4614.5000000000009 94.850000000000009 3487.2500000000005 2318.1200000000003 16.500000000000004 0.91309691036674867
decision_type=10 8 10 10 10 8 8 10 8 8 10 10 10 8 8 8 10 10 8 8 8 8 8 8 10 10 10 8 10 10
left_child=1 3 8 6 5 -4 28 13 -3 26 12 -12 18 15 17 16 -8 -15 -11 20 -20 22 -21 -22 -2 -5 -10 -23 -1 -9
right_child=24 2 4 25 -6 -7 7 29 9 10 11 -13 -14 14 -16 -17 -18 -19 19 21 23 27 -24 -25 -26 -27 -28 -29 -30 -31
leaf_value=-0.0018607899459636302 0.044041951393543603 -0.04518598443361857 -0.052708797890590964 -0.0036956599804535174 -0.059715977031322254 0.043349671552420678 0.035978363383563548 0.0038438135013287786 0.011321588169268343 0.036921001399394297 -0.020225516723646711 0.066536798390638696 -0.061264599494134098 -0.028679362791975273 -0.057084349418741465 0.072432452485927321 -0.030975845990985962 0.033138582086356151 0.046509431746443231 0.008986368534564939 -0.045897153507532054 0.040016796574736141 -0.050912976709760797 0.018642026926159051 0.0003275491850029548 0.043508766397479512 -0.058090034968559724 -0.015289674309039204 0.050340941125033734 -0.034081940451794739
leaf_weight=7.6258656382560757 41.856536626815796 11.279836736619471 6.5718000754713986 8.5710358470678312 24.587058663368225 6.1377013102173814 11.927522838115697 13.486823260784147 4.7603798806667319 12.439553946256636 5.0484049767255774 10.722124502062796 5.6768628954887381 6.5661481618881288 8.1981761157512647 9.3929871767759305 8.4257586896419507 15.095215499401091 14.753895431756971 6.1094105616211989 6.928399592638022 8.7583059072494454 18.682985782623291 9.3091301918029767 10.695902451872824 32.466412842273712 8.8632616624236089 10.703188568353651 14.083934709429739 31.399387404322624
leaf_count=33 199 79 45 40 167 27 51 57 20 54 27 41 32 28 36 33 37 59 57 28 34 32 108 37 42 146 44 44 56 151
internal_value=0.00417059 -0.000648859 -0.0115373 0.0104764 -0.041594 -0.00595341 0.00291548 -0.00307314 -0.00311168 0.000747389 0.00510353 0.0384953 -0.00051861 0.0115551 -0.00538489 0.0286883 0.00800057 0.0141244 0.00342254 -0.00209072 0.0174861 -0.0159218 -0.0359747 -0.00870256 0.0352573 0.0335431 -0.0335661 0.00942176 0.0318507 -0.0225921
internal_weight=391.124 338.572 171.332 167.239 37.2966 12.7095 126.202 104.492 134.036 122.756 109.132 15.7705 93.3617 59.6058 29.8595 29.7463 20.3533 21.6614 87.6849 75.2453 30.9914 44.2539 24.7924 16.2375 52.5524 41.0374 13.6236 19.4615 21.7098 44.8862
internal_count=1844 1603 876 727 239 72 541 452 637 558 494 68 426 244 123 121 88 87 394 340 128 212 136 71 241 186 64 76 89 208
is_linear=0
shrinkage=0.05


Tree=27
num_leaves=31
num_cat=0
split_feature=51 43 87 51 5 57 63 87 33 62 20 63 13 51 51 42 20 57 13 51 33 63 63 20 9 46 20 43 62 69
split_gain=20.6863 16.5058 19.6483 16.7018 11.9158 11.8428 12.9059 11.3257 11.1374 9.31399 9.02928 8.90417 9.87926 8.7834 8.76492 9.11003 7.60201 15.1007 6.04496 5.57053 6.77177 8.23323 5.45409 7.8883 6.69372 8.49437 5.82039 5.73459 8.67948 4.9672
threshold=45.908714285714289 62.603767395019538 96.808333333333351 29.93395833333334 52.607331275939949 71.309523809523824 0.13231953071581823 96.391666666666694 1.0198094089893901 0.2125392663611313 7.4569444444444448 -0.28186701109345097 3071.2550000000006 32.836541666666669 25.811714285714288 71.043623447418227 5.9666666666666686 75.071428571428584 2933.0100000000007 31.983000000000008 1.1140617777282567 0.44234300669357562 0.14883291208014407 6.1166666666666663 79.500000000000014 1.3193626403808596 6.363888888888888 69.701207160949721 0.082714387898544586 7582.4285714285716
decision_type=10 10 10 8 8 8 10 10 8 8 8 10 8 10 8 10 10 8 10 10 10 10 10 8 8 8 10 10 8 10
left_child=1 2 4 5 -1 6 8 13 -3 11 -7 -2 16 19 -6 -16 -13 -18 -15 20 21 22 23 27 -25 -26 -24 28 -5 -27
right_child=9 3 -4 7 14 10 -8 -9 -10 -11 -12 12 -14 18 15 -17 17 -19 -20 -21 -22 -23 26 24 25 29 -28 -29 -30 -31
leaf_value=-0.053843897608862407 -0.061418344547142428 -0.015717436577110954 -0.049701960841922965 0.064155474720148625 -0.035101513247024888 0.046382195221522635 -0.057582467580804833 0.053443813725807157 0.05993899303165539 -0.05625833345402087 -0.022547839764590735 0.054723395172559725 -0.049545841831546554 -0.04732827177866137 0.037490257656172435 -0.028636413226610563 0.048154780003768029 -0.060074549921828362 0.014796974449833572 0.040045004466254676 -0.052609950749952089 0.056604514804085827 -0.058377898550337461 0.035403711561766339 -0.045922621501938599 -0.017775214331337198 0.0039358198406718291 -0.0090727218080760251 -0.017242531421610908 0.035413800043176423
